-3.104800125584006310e-04
-1.479617785662412643e-04
1.743163302307948470e-04
-1.479619822930544615e-04
3.119426255580037832e-04
9.403366711921989918e-04
1.161424734164029360e-04
3.191920695826411247e-04
-4.325009358581155539e-04
-4.485841782297939062e-04
-2.533718652557581663e-04
-1.087103446479886770e-04
4.961976082995533943e-04
-2.927138702943921089e-04
1.353156840195879340e-04
-4.324324254412204027e-04
3.197393089067190886e-04
2.560357970651239157e-04
3.290519816800951958e-04
-4.325093468651175499e-04
-4.226090677548199892e-04
1.589756866451352835e-04
1.432442659279331565e-04
-2.942214778158813715e-04
4.660933918785303831e-04
-4.698674893006682396e-04
2.182952739531174302e-04
-8.227845682995393872e-05
-1.386695803375914693e-04
-2.670901303645223379e-04
3.194178279954940081e-04
-1.168865783256478608e-04
-4.277246480342000723e-04
-1.918653288157656789e-04
3.205779939889907837e-04
-3.358614412718452513e-05
2.800669462885707617e-04
-1.262635778402909636e-04
2.562795416451990604e-04
1.322363823419436812e-04
-3.382902286830358207e-05
3.234991745557636023e-04
-8.218563743866980076e-05
1.545536069897934794e-04
-2.292936987942084670e-04
-1.010508640320040286e-04
-2.666701038833707571e-04
-1.145250207628123462e-04
3.196689358446747065e-04
-8.221904863603413105e-05
-8.411933958996087313e-05
7.481328211724758148e-04
-4.323082685004919767e-04
1.717381674097850919e-04
-4.324209585320204496e-04
3.121069166809320450e-04
4.747039056383073330e-04
-1.085822586901485920e-04
1.718194544082507491e-04
2.928626490756869316e-04
-7.227647583931684494e-04
-4.323235480114817619e-04
-1.089573270292021334e-04
4.535297048278152943e-04
-2.532710204832255840e-04
-3.112514677923172712e-04
2.956446842290461063e-04
-2.644417691044509411e-04
-2.855229540728032589e-04
1.543963444419205189e-04
-2.861380926333367825e-04
3.597344912122935057e-04
-9.678745118435472250e-05
-3.021862648893147707e-04
-6.752928020432591438e-04
-1.411590928910300136e-04
-2.209437952842563391e-04
-3.756414516828954220e-04
-1.002501376206055284e-04
-1.124151676776818931e-04
-1.522532256785780191e-04
5.044802092015743256e-04
1.105085102608427405e-04
1.797433360479772091e-04
-7.837581215426325798e-04
-1.147491493611596525e-04
-1.143452609539963305e-04
1.341140741715207696e-04
2.059901598840951920e-04
3.784411237575113773e-04
-1.348881423473358154e-02
-5.756191909313201904e-03
4.613203182816505432e-02
3.803400613833218813e-04
3.753173950826749206e-05
-2.026389539241790771e-02
-1.328584621660411358e-03
5.090725026093423367e-04
-5.429949960671365261e-04
3.421810641884803772e-02
3.376006498001515865e-04
5.998633241688366979e-06
-2.297855389770120382e-04
-3.389150951988995075e-04
-1.181132392957806587e-03
-8.327676332555711269e-04
1.767835055943578482e-04
-1.386061921948567033e-04
1.709332573227584362e-04
-6.993492133915424347e-03
6.544786039739847183e-03
3.193867451045662165e-04
1.681108213961124420e-02
-2.481445553712546825e-04
-6.323630805127322674e-05
-2.248708158731460571e-02
3.575906739570200443e-04
3.754851408302783966e-03
4.164194315671920776e-02
-3.250211104750633240e-02
5.167215713299810886e-04
3.438937710598111153e-03
-3.740596026182174683e-02
1.431373879313468933e-02
-4.679137840867042542e-02
3.566350496839731932e-04
-7.055923342704772949e-03
4.645181470550596714e-04
-2.136849798262119293e-02
1.459629274904727936e-04
-5.448652431368827820e-02
1.133620025939308107e-04
1.425629109144210815e-02
9.847070323303341866e-04
-6.355795264244079590e-02
5.776724591851234436e-02
2.182817843277007341e-04
4.875865415669977665e-04
4.428849741816520691e-02
7.197830826044082642e-02
-5.249016103334724903e-04
2.000249332922976464e-05
-1.516449172049760818e-02
-3.887315839529037476e-02
-2.297265018569305539e-05
-2.028343267738819122e-02
-1.193401567434193566e-05
-3.753011405933648348e-04
5.432081525214016438e-04
-1.367100887000560760e-02
-2.207065559923648834e-02
1.413351856172084808e-04
-9.569723159074783325e-03
1.947336457669734955e-02
-1.591750606894493103e-02
-9.742954716784879565e-05
3.314705099910497665e-04
5.640425719320774078e-03
2.943128533661365509e-02
2.513852342963218689e-02
-1.186238732771016657e-04
-4.464929457753896713e-03
-8.038640953600406647e-04
7.265647291205823421e-04
-1.112046185880899429e-02
-3.494567063171416521e-04
2.827629796229302883e-04
2.566265757195651531e-04
4.151647153776139021e-04
2.388354763388633728e-02
-5.246046185493469238e-02
1.348579826299101114e-04
-1.549829542636871338e-02
7.894286682130768895e-05
-5.625336430966854095e-03
2.266328036785125732e-02
-1.326280180364847183e-04
1.158282975666224957e-03
-3.235980635508894920e-03
-1.496346667408943176e-03
1.577791199088096619e-02
-6.045925244688987732e-02
2.537152729928493500e-03
-8.048129826784133911e-02
1.066087651997804642e-02
-3.064664313569664955e-03
4.542220558505505323e-04
4.012360004708170891e-04
1.376905478537082672e-02
-1.593317277729511261e-02
5.572073132498189807e-05
-1.010235573630779982e-04
-1.997904910240322351e-04
-1.474469527602195740e-02
1.283101923763751984e-02
-3.318044915795326233e-02
-2.649352536536753178e-04
6.548259261762723327e-05
-1.259258855134248734e-02
4.997403547167778015e-02
-2.175239613279700279e-03
3.265292197465896606e-02
4.232399514876306057e-04
5.955282598733901978e-03
-1.744703203439712524e-02
-4.210175573825836182e-02
7.827609806554391980e-06
2.911971532739698887e-04
6.498178839683532715e-02
1.405676361173391342e-02
-7.890941342338919640e-04
-1.520580844953656197e-04
-6.022923067212104797e-02
2.979208511533215642e-05
-3.661632910370826721e-02
-1.351099740713834763e-02
-4.325613263063132763e-04
5.856881290674209595e-02
-1.463561970740556717e-02
-3.687943890690803528e-02
-1.934285461902618408e-02
3.159731277264654636e-04
1.805522362701594830e-03
-1.282379031181335449e-02
-9.928774088621139526e-03
2.838693326339125633e-04
-3.731526667252182961e-03
1.762843021424487233e-04
9.425504831597208977e-04
-3.101886808872222900e-02
-2.534362673759460449e-02
3.088316589128226042e-04
-1.091177036869339645e-04
2.729217521846294403e-03
5.757716298103332520e-02
-3.141040680930018425e-03
7.608650048496201634e-05
-8.153136819601058960e-03
3.997386619448661804e-02
-1.834682188928127289e-02
3.113378956913948059e-02
3.393047302961349487e-02
-1.054945308715105057e-02
-2.970393747091293335e-02
1.840749010443687439e-02
-3.535477735567837954e-04
5.390054429881274700e-04
4.856683372054249048e-04
5.202369648031890392e-04
-1.660245656967163086e-02
-6.406619399785995483e-02
2.955760573968291283e-04
-5.214024335145950317e-03
3.160838410258293152e-02
-1.635676249861717224e-02
-2.430723607540130615e-02
-6.755196372978389263e-04
3.089823294430971146e-03
1.341752335429191589e-02
-3.426717221736907959e-02
6.506694853305816650e-02
1.285616587847471237e-02
-3.540594596415758133e-03
1.352009922266006470e-02
-4.426533996593207121e-05
1.819680817425251007e-02
-2.946946211159229279e-02
1.353156840195879340e-04
-1.819373108446598053e-02
-3.438493609428405762e-02
-3.364131227135658264e-02
9.377780370414257050e-04
-3.297113114967942238e-03
-2.381020411849021912e-02
1.553513575345277786e-02
5.562284030020236969e-03
1.980972010642290115e-04
-3.234705701470375061e-02
8.266190066933631897e-03
-2.487737499177455902e-02
3.671777620911598206e-02
7.547067105770111084e-02
-2.021420747041702271e-02
4.990698397159576416e-02
9.951622039079666138e-02
3.026172146201133728e-02
2.309702686034142971e-04
-8.231773244915530086e-05
4.100983962416648865e-03
-6.719872355461120605e-02
-5.815453454852104187e-02
2.912607451435178518e-04
-6.859849393367767334e-02
-1.515492890030145645e-02
-4.184684902429580688e-02
-1.065151114016771317e-02
1.713404490146785975e-04
-3.692271187901496887e-02
-2.259137295186519623e-02
-2.444794401526451111e-03
-2.386750129517167807e-04
-6.856695399619638920e-04
-1.748714566929265857e-04
4.551712117972783744e-05
1.062243711203336716e-03
8.464156417176127434e-04
-5.003854166716337204e-04
1.818228483898565173e-04
-4.015715676359832287e-04
-3.459247993305325508e-03
-8.743570186197757721e-03
-4.486126417759805918e-04
2.890605828724801540e-04
-3.603594668675214052e-04
-1.860187621787190437e-03
-4.784290492534637451e-02
-1.552970061311498284e-04
-8.430156111717224121e-02
2.178594097495079041e-02
8.410010486841201782e-02
2.381750009953975677e-02
4.115728370379656553e-04
2.439375221729278564e-02
-3.748255223035812378e-02
-4.560146946460008621e-03
1.587562001077458262e-04
6.257824599742889404e-03
-9.116327273659408092e-04
9.936637245118618011e-03
1.529213692992925644e-02
-5.884664878249168396e-02
-1.064667449099943042e-04
6.092095864005386829e-04
-2.903256972786039114e-04
-6.219489872455596924e-02
-4.645738378167152405e-02
3.232698945794254541e-04
-2.386956289410591125e-02
-1.215394149767234921e-07
6.045775488018989563e-02
1.201391667127609253e-01
6.379275768995285034e-02
3.917353600263595581e-02
1.067064106464385986e-01
6.955435033887624741e-03
1.652466505765914917e-02
-4.205265268683433533e-02
-3.051144012715667486e-04
-7.051265984773635864e-02
-1.300807634834200144e-04
-8.080776035785675049e-02
-2.968929766211658716e-04
-2.244884893298149109e-02
-2.950806543231010437e-02
-5.267599970102310181e-02
-2.054106444120407104e-03
-4.226305754855275154e-04
-3.323226049542427063e-02
-6.817053258419036865e-02
-7.904178462922573090e-03
-6.592206191271543503e-03
8.728473633527755737e-02
4.312352277338504791e-03
7.397749274969100952e-02
1.032389849424362183e-01
3.545317798852920532e-03
-2.369819581508636475e-02
-1.426862145308405161e-04
-1.537911221385002136e-02
2.150691580027341843e-04
-6.163976714015007019e-02
-4.403913044370710850e-04
-8.109054528176784515e-03
-5.127524491399526596e-03
-7.480540871620178223e-02
-2.058332599699497223e-02
4.676722746808081865e-04
-5.567152798175811768e-02
-1.018992997705936432e-02
-1.640547625720500946e-02
3.859029384329915047e-04
-1.663506918703205884e-05
-9.879834251478314400e-04
2.978410758078098297e-02
2.102889586240053177e-03
-1.138199077104218304e-04
-1.458101253956556320e-02
4.586999129969626665e-04
5.652692634612321854e-03
1.272870600223541260e-02
2.168080769479274750e-02
7.470121490769088268e-04
-1.019858568906784058e-02
-1.516284234821796417e-02
-7.824100553989410400e-02
-3.536855056881904602e-02
-7.965498953126370907e-04
-8.113555610179901123e-03
-8.352446020580828190e-04
2.559701725840568542e-02
2.241899259388446808e-02
4.652637522667646408e-03
1.420242711901664734e-02
6.786137819290161133e-02
-3.056972846388816833e-02
-3.750609233975410461e-02
4.018457606434822083e-02
1.743189932312816381e-04
1.234236434102058411e-01
-1.857347342593129724e-06
-4.273680970072746277e-02
3.376083914190530777e-04
1.406627143296645954e-05
-1.218597684055566788e-02
-4.243191331624984741e-02
-5.881440639495849609e-02
5.078370122646447271e-06
-3.289991617202758789e-02
-1.611815206706523895e-02
-5.816565081477165222e-02
4.324056953191757202e-02
4.526871070265769958e-02
1.680399663746356964e-02
8.435622602701187134e-02
2.678894437849521637e-02
3.416453674435615540e-02
-8.040833286941051483e-03
-3.079958842135965824e-04
-4.285841714590787888e-03
-8.425489999353885651e-03
-5.252470821142196655e-02
3.285303246229887009e-04
-4.579340666532516479e-02
-4.899682477116584778e-02
-5.087348446249961853e-02
2.605443660286255181e-05
9.384779259562492371e-04
2.693880742299370468e-05
-5.469429492950439453e-02
-3.839251399040222168e-02
2.478912472724914551e-02
3.976936638355255127e-02
7.390995160676538944e-04
3.284194320440292358e-02
3.615126386284828186e-02
5.146173294633626938e-03
3.281392855569720268e-03
4.589404852595180273e-04
2.426684513920918107e-04
3.677905988297425210e-05
-6.373871117830276489e-02
-3.112508857157081366e-04
-3.036050312221050262e-02
3.751838579773902893e-02
-5.537522956728935242e-02
-2.417852357029914856e-02
-1.556356874061748385e-04
-5.130473896861076355e-02
-1.045535784214735031e-02
-5.767052620649337769e-02
-2.858876250684261322e-04
-1.826255611376836896e-04
1.350670790998265147e-04
2.471082261763513088e-04
2.796090557239949703e-04
-2.207735669799149036e-04
2.911959309130907059e-04
-1.451463176636025310e-04
3.280350647401064634e-04
1.273764355573803186e-04
-1.847691019065678120e-04
-1.363039482384920120e-04
-3.112373815383762121e-04
3.314620407763868570e-04
-1.143181652878411114e-04
1.529685396235436201e-04
2.927828172687441111e-04
2.467219019308686256e-04
-8.439051453024148941e-05
-1.077608540072105825e-04
1.590085739735513926e-04
4.749392683152109385e-04
-4.409036191646009684e-04
-2.664034836925566196e-04
4.676771350204944611e-04
-2.295831654919311404e-04
-2.651905815582722425e-04
3.198354097548872232e-04
-1.010449559544213116e-04
-3.041781310457736254e-04
-8.230959792854264379e-05
1.720298751024529338e-04
-2.901957486756145954e-04
1.224781444761902094e-04
-4.396934236865490675e-04
-1.826093503041192889e-04
1.341130846412852407e-04
4.011887940578162670e-04
-6.746698636561632156e-04
-2.649773377925157547e-04
-2.295439917361363769e-04
1.738248247420415282e-04
2.181626332458108664e-04
1.407271920470520854e-04
1.266127801500260830e-04
5.993232116452418268e-05
7.023010984994471073e-04
2.316545578651130199e-04
1.429032126907259226e-04
-2.969265333376824856e-04
-9.138120803982019424e-04
4.747413040604442358e-04
2.552782534621655941e-04
9.408559999428689480e-04
-1.159401508630253375e-04
-1.143460613093338907e-04
1.626889425097033381e-04
3.986518422607332468e-04
1.159130988526158035e-04
-4.323713365010917187e-04
-2.929402689915150404e-04
-1.556636270834133029e-04
-4.593446501530706882e-04
-1.087102064047940075e-04
3.121423069387674332e-04
1.528507709736004472e-04
-4.593546327669173479e-04
1.341175666311755776e-04
1.300959265790879726e-04
9.407324832864105701e-04
2.954525989480316639e-04
-2.901715633925050497e-04
4.538364592008292675e-04
2.475577639415860176e-04
1.424276415491476655e-04
-2.901826228480786085e-04
-1.919584756251424551e-04
4.538926004897803068e-04
-1.077874840120784938e-04
-2.928903850261121988e-04
4.440795164555311203e-04
4.961937083862721920e-04
-4.272791848052293062e-04
2.967027539853006601e-04
-1.130013915826566517e-04
1.589942839927971363e-04
-1.818630378693342209e-03
2.800347574520856142e-04
1.816793374018743634e-04
-2.859244495630264282e-02
-6.672012060880661011e-02
1.024395041167736053e-02
8.367756381630897522e-04
-1.442543417215347290e-02
7.004255166975781322e-06
6.574135477421805263e-05
-3.751879557967185974e-04
-8.060787804424762726e-03
4.446406662464141846e-02
-3.621176583692431450e-03
-1.002418721327558160e-04
-4.698293341789394617e-04
3.991007397416979074e-04
3.233948955312371254e-04
4.535695479717105627e-04
-4.592980549205094576e-04
-1.053649029927328229e-04
-2.927943132817745209e-04
3.603564109653234482e-04
1.323963369941338897e-04
-2.932243805844336748e-04
-1.879827678203582764e-02
-2.381992526352405548e-04
1.229272020282223821e-04
3.121953923255205154e-04
-2.297784812981262803e-04
-3.353191277710720897e-05
-9.601937979459762573e-02
-2.855841012205928564e-04
1.905937306582927704e-02
4.720837387139908969e-05
4.008359974250197411e-04
-6.433541420847177505e-05
4.747845814563333988e-04
4.749427607748657465e-04
6.889374344609677792e-05
2.801662485580891371e-04
-4.593082994688302279e-04
-1.413181744283065200e-04
3.716177074238657951e-03
-2.551303186919540167e-04
1.762874599080532789e-04
-1.667561446083709598e-05
8.912284974940121174e-04
-2.125403261743485928e-04
1.321777421981096268e-02
-1.489170547574758530e-02
-3.905848786234855652e-02
2.681794110685586929e-03
-3.500377014279365540e-02
1.471103914082050323e-02
2.819365181494504213e-04
6.847607344388961792e-02
1.719735591905191541e-04
-4.382934130262583494e-04
1.649031473789364100e-04
2.127888728864490986e-05
2.561421133577823639e-04
-1.144915222539566457e-04
-6.430272478610277176e-04
-1.118914410471916199e-02
3.280509845353662968e-04
-1.952638104557991028e-02
-2.137554809451103210e-02
7.463553920388221741e-03
-6.199933122843503952e-03
-6.093374267220497131e-02
6.536877481266856194e-04
-6.013393402099609375e-02
2.298375777900218964e-02
1.677618129178881645e-04
-6.242618546821177006e-04
5.234003183431923389e-04
-1.279178191907703876e-03
1.345062511973083019e-03
-3.725201240740716457e-04
2.067370078293606639e-04
1.070015016011893749e-03
-3.021753509528934956e-04
1.812486734706908464e-04
-4.930464178323745728e-02
3.343564749229699373e-04
-1.391298044472932816e-02
4.382033646106719971e-02
-8.859112113714218140e-02
1.509739377070218325e-04
-8.219592564273625612e-05
1.181079167872667313e-02
3.191514685750007629e-02
-1.324807573109865189e-02
2.940673194825649261e-02
-1.395197957754135132e-02
-2.749937400221824646e-02
-7.127702236175537109e-02
-3.476617112755775452e-02
-4.546694830060005188e-02
6.096299039199948311e-04
-1.847391977207735181e-04
-4.646324960049241781e-04
5.388252437114715576e-03
-3.240472078323364258e-02
-3.744124842341989279e-04
3.387105651199817657e-03
2.364597655832767487e-02
2.098891884088516235e-02
-3.111488744616508484e-02
-1.089585930458270013e-04
5.488777533173561096e-04
2.827671170234680176e-02
4.510748386383056641e-02
-2.919323742389678955e-05
7.981510460376739502e-02
2.112776599824428558e-02
6.797116249799728394e-02
-3.318415209650993347e-02
9.236699406756088138e-05
-6.781990081071853638e-02
-1.265664177481085062e-04
9.255322627723217010e-03
6.922252359800040722e-04
-6.419114023447036743e-02
-1.043692464008927345e-03
1.595171925146132708e-04
-2.083963528275489807e-02
-4.226338863372802734e-02
6.479787640273571014e-03
-4.698343400377780199e-04
-2.676115371286869049e-03
-1.242220308631658554e-02
-1.090102130547165871e-03
1.973329344764351845e-03
9.454081766307353973e-03
8.991110371425747871e-04
-2.100220508873462677e-02
1.391904521733522415e-02
-1.141874212771654129e-02
-1.437678188085556030e-02
-1.074097963282838464e-04
2.123817242681980133e-02
-8.786245249211788177e-03
-1.140485424548387527e-02
-1.919188216561451554e-04
-1.147259099525399506e-04
-1.113105285912752151e-02
-2.261173166334629059e-02
-1.320651546120643616e-02
-2.651943068485707045e-04
2.416115626692771912e-02
7.531748618930578232e-03
-2.735279686748981476e-02
4.751110100187361240e-04
1.638195826672017574e-04
-1.805517636239528656e-02
4.173582792282104492e-02
1.183393469545990229e-04
8.532526902854442596e-03
1.616131194168701768e-04
1.328032230958342552e-04
-3.235706572013441473e-06
-1.399494241923093796e-02
-2.598797902464866638e-02
-2.017646329477429390e-04
-3.380330745130777359e-03
-4.432009067386388779e-03
-8.462412655353546143e-02
-2.404971048235893250e-02
-3.026948543265461922e-04
3.099069232121109962e-03
4.926791414618492126e-02
2.738840645179152489e-03
-3.842838108539581299e-03
-1.101260349969379604e-04
1.341448514722287655e-04
4.188283532857894897e-02
2.169324216083623469e-05
4.612219333648681641e-02
-6.241359189152717590e-02
2.091262576868757606e-04
3.301773540442809463e-05
2.423510886728763580e-04
-4.634097858797758818e-04
3.126077936030924320e-04
7.813985575921833515e-04
-5.062286928296089172e-02
-2.859022095799446106e-02
-7.826442597433924675e-04
3.122580528724938631e-04
-3.024166263639926910e-02
2.525972668081521988e-03
8.127768523991107941e-04
-7.418460678309202194e-03
1.183748026960529387e-04
3.285325656179338694e-04
5.452286824584007263e-02
-3.173346398398280144e-03
3.306127712130546570e-02
-9.841901191975921392e-05
1.430952979717403650e-04
-1.626749783754348755e-01
3.123368078377097845e-04
5.152057274244725704e-04
-4.409757093526422977e-04
-2.048637543339282274e-04
1.086449337890371680e-04
6.150191184133291245e-04
3.376054519321769476e-04
1.085139811038970947e-03
-7.221039268188178539e-04
4.962251405231654644e-04
6.632215343415737152e-03
1.821034384192898870e-04
-3.850606444757431746e-04
3.086928336415439844e-04
1.752084499457851052e-04
2.951893256977200508e-04
-8.413937757723033428e-05
3.151314449496567249e-04
2.725516678765416145e-04
1.743178145261481404e-04
3.343558637425303459e-04
-2.056080702459439635e-04
1.350669481325894594e-04
-5.689611658453941345e-03
-4.252984581398777664e-05
-1.246090605854988098e-02
-1.468825303163612261e-05
-5.164572596549987793e-02
2.801055961754173040e-04
7.702070288360118866e-04
-3.043182194232940674e-03
1.350672100670635700e-04
-4.395577416289597750e-04
-4.698178090620785952e-04
-2.292179997311905026e-04
-3.104778588749468327e-04
-1.089574434445239604e-04
-1.010541600408032537e-04
-8.807090925984084606e-04
4.011022974736988544e-04
-2.934289514087140560e-04
-8.330331766046583652e-04
-1.450409035896882415e-04
1.762905594659969211e-04
-1.854839734733104706e-03
-1.053671439876779914e-04
-2.851111255586147308e-02
-3.811467066407203674e-02
-4.383248779049608856e-06
2.839926443994045258e-02
2.088639140129089355e-02
-2.931831695605069399e-04
-4.229056066833436489e-04
-8.446019637631252408e-05
-2.934220246970653534e-04
1.313872076570987701e-02
-4.326139460317790508e-04
-1.143361805588938296e-04
4.856557352468371391e-04
6.277450302150100470e-05
-1.391759869875386357e-04
-9.872213006019592285e-02
1.717894629109650850e-04
-2.400799654424190521e-03
-2.647204382810741663e-04
-4.501004889607429504e-02
-2.667575608938932419e-04
3.144647926092147827e-04
3.403542935848236084e-02
-3.833075985312461853e-02
5.027650296688079834e-02
-1.077872075256891549e-04
-3.778623067773878574e-04
2.591786033008247614e-04
-2.531829231884330511e-04
7.104846090078353882e-02
2.647582069039344788e-02
-3.517040610313415527e-02
2.930589253082871437e-04
-1.079283282160758972e-01
-1.081426721066236496e-02
-6.405216990970075130e-04
-4.324646433815360069e-04
2.891352341976016760e-04
-1.479513710364699364e-03
5.487969028763473034e-04
3.586118342354893684e-03
-1.097047701478004456e-02
4.010297416243702173e-04
-6.991246482357382774e-04
-1.213781256228685379e-02
-1.670547574758529663e-02
-1.650124788284301758e-02
-1.301367301493883133e-04
-7.727888412773609161e-03
8.696889504790306091e-03
4.961203667335212231e-04
-3.959854133427143097e-03
-1.282572484342381358e-04
6.209709681570529938e-03
5.551497265696525574e-02
-7.785689551383256912e-03
-1.325528719462454319e-04
-6.893672980368137360e-03
-4.806867946172133088e-05
-2.108252048492431641e-02
-3.120186011074110866e-05
-9.119628812186419964e-04
-1.834610127843916416e-03
7.320079486817121506e-03
-2.220724709331989288e-02
-5.158022791147232056e-02
7.107195258140563965e-02
-1.427288725972175598e-02
1.033491492271423340e-01
7.774604111909866333e-02
-4.901286587119102478e-02
-2.493425458669662476e-02
3.197798505425453186e-04
2.083654142916202545e-02
-1.408876269124448299e-04
-7.280028611421585083e-02
3.280787495896220207e-04
-6.585703790187835693e-02
-7.144814357161521912e-03
1.873291621450334787e-04
3.905839985236525536e-04
-3.365877273608930409e-05
-4.566215444356203079e-03
-1.297529507428407669e-02
-2.963451843243092299e-04
-4.498380701988935471e-03
5.900580808520317078e-02
-3.286686842329800129e-05
-5.035950802266597748e-03
2.941535785794258118e-02
1.653778180480003357e-02
2.054000832140445709e-02
-1.058817433658987284e-04
4.400362959131598473e-04
2.424666844308376312e-02
-5.140964314341545105e-02
4.856971499975770712e-04
-4.176430776715278625e-02
7.727062329649925232e-03
-7.996357232332229614e-02
-4.157495871186256409e-02
6.889809446875005960e-05
3.253605682402849197e-03
1.304233167320489883e-02
-5.228501930832862854e-02
-2.850372903048992157e-02
5.687509104609489441e-02
-2.978584961965680122e-04
1.122672390192747116e-02
-5.994437378831207752e-05
1.543565653264522552e-02
-4.788015410304069519e-02
4.747020138893276453e-04
-1.357876695692539215e-02
-1.189920469187200069e-03
2.923767315223813057e-04
1.594510301947593689e-02
-6.945543456822633743e-03
-5.031125247478485107e-02
1.063321396941319108e-04
-9.364040306536480784e-05
1.322375028394162655e-04
-6.210671272128820419e-04
-1.755563169717788696e-02
2.796312607824802399e-02
8.530993014574050903e-03
-2.299842610955238342e-02
4.282485169824212790e-04
2.141092345118522644e-02
5.280173849314451218e-03
-1.826969528337940574e-04
-8.483953024551738054e-06
1.133647019742056727e-04
-4.392886476125568151e-04
-1.468611648306250572e-03
1.027057785540819168e-02
-8.449019514955580235e-05
2.785331889754161239e-05
1.736924797296524048e-02
-3.042669559363275766e-04
7.457474712282419205e-03
-4.698210395872592926e-04
-2.895249798893928528e-02
4.501122981309890747e-02
-1.393019314855337143e-02
-1.666440069675445557e-02
8.292640000581741333e-02
1.085463538765907288e-02
5.984614472254179418e-05
-2.842388674616813660e-02
1.690391654847189784e-04
6.595255108550190926e-04
-4.638429090846329927e-04
2.897402155213057995e-04
1.105252740671858191e-04
-9.843775478657335043e-05
3.291005850769579411e-04
-1.053469095495529473e-04
4.809750244021415710e-03
-4.484884266275912523e-04
3.376006206963211298e-04
-3.021795710083097219e-04
-2.652269322425127029e-04
-1.426543749403208494e-04
3.530583344399929047e-04
3.195602330379188061e-04
-2.931170165538787842e-04
-1.455694728065282106e-04
-1.279508724110201001e-04
-1.053597588906995952e-04
-1.453729928471148014e-04
-8.705307845957577229e-05
-2.688943641260266304e-04
-1.053565792972221971e-04
-1.053564919857308269e-04
3.280410019215196371e-04
-7.351392507553100586e-02
-2.332235162612050772e-04
-1.386216463288292289e-04
2.180167357437312603e-04
-2.669842215254902840e-04
-2.044389490038156509e-03
4.366075620055198669e-02
-5.216792598366737366e-02
1.418340206146240234e-02
-6.189150735735893250e-05
-3.021708689630031586e-04
-2.249278040835633874e-04
-2.647283254191279411e-04
2.966109022963792086e-04
-2.765326353255659342e-04
-2.859782252926379442e-04
-1.085419207811355591e-04
-2.970922214444726706e-04
6.073037511669099331e-04
3.779065154958516359e-04
-4.807098302990198135e-03
6.301748217083513737e-04
9.515497833490371704e-03
-6.147075444459915161e-03
6.297889631241559982e-03
-4.233270592521876097e-04
3.637622809037566185e-03
-4.517903178930282593e-02
-4.993606731295585632e-02
1.227294269483536482e-04
-1.521863014204427600e-04
1.930406666360795498e-03
3.122855268884450197e-04
5.800846498459577560e-03
1.070006750524044037e-03
-5.003432306693866849e-05
-1.043710741214454174e-03
3.240334626752883196e-04
2.934274380095303059e-04
-7.416157051920890808e-03
-4.398464225232601166e-04
-9.841643623076379299e-05
-2.123044803738594055e-02
1.042736694216728210e-02
7.216147333383560181e-02
6.011689765728078783e-05
4.820927861146628857e-04
9.444819443160668015e-05
2.928449539467692375e-04
-3.625781391747295856e-04
4.173800407443195581e-04
-1.875361049314960837e-04
-8.376332698389887810e-04
2.736151916906237602e-03
1.038376940414309502e-03
-2.115437018801458180e-05
-9.114979766309261322e-04
1.341150928055867553e-04
1.339613343589007854e-03
-2.687314918148331344e-05
4.588452575262635946e-04
-8.622947498224675655e-04
2.050336217507719994e-03
-3.600907439249567688e-05
2.405822835862636566e-02
-1.538900396553799510e-04
1.897949539124965668e-02
1.082613132894039154e-02
-1.770796440541744232e-02
-9.223890304565429688e-02
7.547772675752639771e-02
2.676862757652997971e-03
-9.299926459789276123e-03
-7.121858745813369751e-02
5.734397564083337784e-04
-3.552279085852205753e-04
-2.302454231539741158e-04
-3.021650190930813551e-04
-1.397542469203472137e-02
1.059267087839543819e-04
-1.053475789376534522e-04
-1.023320388048887253e-02
6.985104642808437347e-03
-1.725661382079124451e-02
3.259499371051788330e-02
4.490231804084032774e-04
1.339327264577150345e-02
-4.497412126511335373e-03
1.567806466482579708e-03
2.673234418034553528e-02
2.055734209716320038e-02
5.290351808071136475e-03
-4.173698369413614273e-03
1.157340127974748611e-02
-3.086386015638709068e-03
-3.266460821032524109e-02
9.069883381016552448e-04
-1.085010007955133915e-04
-5.326651502400636673e-03
-3.451269492506980896e-02
1.300102012464776635e-04
-6.624293327331542969e-02
2.485822513699531555e-02
-3.781457198783755302e-03
-1.097075361758470535e-02
3.994907601736485958e-04
-1.510032638907432556e-02
7.131083309650421143e-02
-4.068799316883087158e-02
7.944107800722122192e-02
-4.982864484190940857e-02
9.435445070266723633e-03
-6.017320230603218079e-02
-9.730052202939987183e-03
2.660161629319190979e-02
1.154281795024871826e-01
3.172783763147890568e-04
-1.074149273335933685e-02
1.843593548983335495e-03
1.019685715436935425e-02
1.086251140804961324e-04
-3.382257372140884399e-02
-2.212437335401773453e-03
-2.869705297052860260e-02
-1.917747140396386385e-04
2.192029569414444268e-05
-4.786074161529541016e-02
-5.624215304851531982e-02
-3.393535269424319267e-03
-1.077566266758367419e-04
-2.110214531421661377e-02
-5.596454720944166183e-04
-1.499335921835154295e-04
4.967164993286132812e-02
-4.885721718892455101e-04
3.123285423498600721e-04
-3.017741255462169647e-04
-1.521662488812580705e-04
-1.980817876756191254e-02
-6.922633852809667587e-03
1.595364511013031006e-02
-5.429693497717380524e-03
-1.679514907300472260e-02
-5.284057930111885071e-03
-6.420969148166477680e-04
4.647789173759520054e-04
-5.515811499208211899e-03
-8.540416136384010315e-03
-4.128106520511209965e-04
3.376081585884094238e-04
1.544412662042304873e-04
-1.262890291400253773e-04
-1.266134495381265879e-04
-4.698710981756448746e-04
-3.410968696698546410e-03
1.266360195586457849e-04
-8.427082502748817205e-05
-1.043675583787262440e-03
-3.389894118299707770e-05
6.030391668900847435e-04
-5.607694387435913086e-02
1.323604956269264221e-04
-1.257291063666343689e-03
4.301947727799415588e-02
2.493726206012070179e-04
3.197508631274104118e-04
3.650554281193763018e-04
-3.539581957738846540e-04
-4.322012500779237598e-06
3.598824259825050831e-04
3.207005793228745461e-04
-4.630346223711967468e-02
-9.613286965759471059e-05
-2.976983378175646067e-04
-4.799178242683410645e-02
6.000214125378988683e-05
-1.053617088473401964e-04
-9.027108899317681789e-05
-1.320612500421702862e-03
3.355197235941886902e-02
3.165354137308895588e-04
2.321419492363929749e-02
-5.771123338490724564e-03
-1.669611781835556030e-03
-9.284662519348785281e-05
-1.089563374989666045e-04
1.356561016291379929e-02
1.576743833720684052e-02
-3.553046286106109619e-02
-2.160996664315462112e-03
7.990481681190431118e-04
-2.647690998855978251e-04
-5.157458595931529999e-03
-6.904993206262588501e-04
-2.654090058058500290e-04
-2.934585791081190109e-04
-1.088731223717331886e-04
5.554593517445027828e-04
-1.224448159337043762e-02
-5.384933948516845703e-02
-9.117349982261657715e-04
-9.453164413571357727e-03
-4.163070581853389740e-03
-3.401720314286649227e-04
2.588158240541815758e-04
-2.882308908738195896e-04
-9.312219335697591305e-04
1.900693587958812714e-02
9.646262042224407196e-03
-1.745699718594551086e-02
1.277367025613784790e-02
7.332406821660697460e-04
-8.596743643283843994e-02
-1.758000627160072327e-02
1.139406464062631130e-03
-4.714113846421241760e-02
1.086914562620222569e-04
3.813276067376136780e-02
-8.673987537622451782e-02
1.467085070908069611e-02
5.078187314211390913e-06
4.097501005162484944e-05
-4.571512807160615921e-03
-1.263739541172981262e-02
-2.635915006976574659e-05
-4.325383633840829134e-04
8.801766671240329742e-03
9.367342293262481689e-02
7.201236672699451447e-03
2.424443699419498444e-02
1.798334596969652921e-05
-1.235950831323862076e-02
2.507652901113033295e-02
6.205281242728233337e-02
-3.712477907538414001e-02
-6.097985431551933289e-02
3.943972697015851736e-04
2.321442589163780212e-03
1.603705994784832001e-02
-2.526239678263664246e-02
-4.484536184463649988e-04
-6.729654705850407481e-05
-1.431075070286169648e-04
2.326482062926515937e-04
-5.807821638882160187e-03
-2.934711228590458632e-04
-2.132930792868137360e-02
-8.004293777048587799e-03
-1.017088536173105240e-02
-3.174035251140594482e-02
4.200325906276702881e-02
3.005366670549847186e-05
4.477800801396369934e-02
2.456506341695785522e-02
3.840100765228271484e-02
-6.125632207840681076e-04
-3.379763074917718768e-05
-3.083649324253201485e-03
9.341247379779815674e-03
-3.410530462861061096e-02
3.197290352545678616e-04
-3.414674848318099976e-02
-4.061694070696830750e-02
-2.123038470745086670e-02
5.964541062712669373e-02
-1.918112830026075244e-04
-1.932387985289096832e-02
-6.164310034364461899e-03
-6.854148954153060913e-02
-3.018744289875030518e-02
1.184912770986557007e-02
5.442844121716916561e-04
1.133992616087198257e-02
4.063932574354112148e-04
1.706898212432861328e-02
-1.688359625404700637e-04
3.144738147966563702e-04
-1.333058462478220463e-03
-3.492066264152526855e-02
-6.503397226333618164e-02
-1.089585057343356311e-04
-1.178240418084897101e-04
-1.355113182216882706e-02
1.485768333077430725e-02
1.534721013740636408e-05
1.341149327345192432e-04
1.071090577170252800e-03
-1.507595088332891464e-02
2.131068031303584576e-04
7.071850448846817017e-02
-3.119882568717002869e-02
6.601235270500183105e-02
1.658261008560657501e-02
3.170395269989967346e-03
2.985971421003341675e-02
-5.344105738913640380e-05
-2.930665214080363512e-04
1.742379367351531982e-02
8.781643584370613098e-03
-1.823926903307437897e-02
-1.085419280570931733e-04
-9.830567054450511932e-03
-8.613925427198410034e-02
-4.774471744894981384e-03
-4.465074092149734497e-02
-4.410572291817516088e-04
-3.252121061086654663e-02
-3.021116368472576141e-02
-1.968794874846935272e-02
5.460751429200172424e-02
6.262148916721343994e-02
5.596042051911354065e-02
7.166153937578201294e-02
1.412948768120259047e-04
3.252381831407546997e-02
5.213616415858268738e-02
-4.972982424078509212e-05
-1.968466490507125854e-02
-5.413512699306011200e-03
-5.103775486350059509e-02
4.589378077071160078e-04
-3.275602683424949646e-02
-9.420178085565567017e-02
-6.364347785711288452e-02
9.296850301325321198e-03
1.408279786119237542e-04
-7.005627453327178955e-02
-7.016303390264511108e-02
-1.679146313108503819e-03
-1.974967308342456818e-04
3.689560107886791229e-04
-1.253045443445444107e-02
-3.391435369849205017e-02
2.290607430040836334e-02
-9.746862342581152916e-04
-1.562051038490608335e-04
-3.748371673282235861e-04
6.413942668586969376e-03
-6.882363557815551758e-02
-1.419185864506289363e-04
-3.079985035583376884e-04
7.192645716713741422e-05
-1.012370339594781399e-04
3.063010238111019135e-02
9.788139723241329193e-03
-1.488513225922361016e-04
-2.671076729893684387e-02
-5.354313552379608154e-02
3.875827044248580933e-02
1.515056210337206721e-04
1.586987636983394623e-02
2.651702961884438992e-04
2.774746716022491455e-02
-1.431441120803356171e-02
-1.444851327687501907e-02
-3.932388126850128174e-02
-1.160598112619481981e-04
2.482445561327040195e-04
-1.581186614930629730e-02
-1.953054405748844147e-02
5.078569301986135542e-06
6.387330126017332077e-03
2.125282958149909973e-02
-5.539259407669305801e-03
-1.095461891964077950e-03
4.010912671219557524e-04
-3.117764554917812347e-02
8.889535441994667053e-03
9.189260890707373619e-05
2.226238884031772614e-02
-3.144924994558095932e-04
1.780238933861255646e-02
4.020280390977859497e-02
9.682747768238186836e-04
3.652816638350486755e-02
-5.594010581262409687e-04
-3.112500999122858047e-04
-1.421446539461612701e-02
3.921046853065490723e-02
2.391101792454719543e-03
-1.451059652026742697e-04
-3.953464329242706299e-02
-5.306981503963470459e-02
-8.763752877712249756e-02
-4.770838841795921326e-02
-3.338856913615018129e-04
-1.003983616828918457e-02
-5.675264447927474976e-02
-3.436315432190895081e-02
5.480110645294189453e-03
2.396211726590991020e-03
-3.526092506945133209e-03
7.007074076682329178e-03
2.008011564612388611e-02
2.837176725734025240e-05
4.128705710172653198e-02
-2.929538022726774216e-04
-1.731876097619533539e-02
2.057807520031929016e-03
-3.025055117905139923e-02
-2.206404169555753469e-04
4.303627181798219681e-03
-1.845168508589267731e-02
-2.714576572179794312e-02
-4.697650671005249023e-02
-1.053542728186585009e-04
-6.265117973089218140e-02
-1.284866780042648315e-02
8.410745300352573395e-03
3.659425710793584585e-04
-6.660121493041515350e-03
1.257528492715209723e-04
-5.298816412687301636e-02
9.812719654291868210e-04
-2.493567997589707375e-03
-5.803227424621582031e-03
1.818417076719924808e-04
4.197712987661361694e-04
6.593327852897346020e-04
-5.984545126557350159e-02
3.597429313231259584e-04
1.949298381805419922e-02
3.835226967930793762e-02
-1.554585248231887817e-02
1.862439885735511780e-02
3.240538353566080332e-04
-6.231061706785112619e-05
-3.163321316242218018e-02
-6.311912555247545242e-03
-5.052674934267997742e-02
-6.715808063745498657e-02
2.021665917709469795e-03
-2.704139798879623413e-03
1.352969702566042542e-04
3.316176356747746468e-03
-7.068239501677453518e-04
-1.089580109692178667e-04
4.634213447570800781e-02
3.022742457687854767e-04
-8.589754725107923150e-05
-1.265011669602245092e-04
1.287071872502565384e-02
-2.075605094432830811e-02
1.690964400768280029e-02
1.000910345464944839e-02
-4.401938640512526035e-04
3.172006085515022278e-02
-6.920052319765090942e-02
-3.837097808718681335e-02
-4.883673042058944702e-03
-6.644782115472480655e-05
-9.293722920119762421e-03
-1.156204729340970516e-03
1.626962912268936634e-04
-3.916755691170692444e-02
1.723817363381385803e-02
2.979655400849878788e-04
-1.047322340309619904e-02
-1.060394279193133116e-04
-2.243864000774919987e-04
-2.823572431225329638e-04
-1.160547908511944115e-04
1.353127299807965755e-04
-9.030324406921863556e-03
2.090030175168067217e-04
4.962153034284710884e-04
3.122373018413782120e-04
-4.413038841448724270e-04
1.412087149219587445e-04
2.066200133413076401e-03
1.053694635629653931e-02
-1.826186053222045302e-04
-9.654910536482930183e-05
-3.250843286514282227e-02
-2.901750558521598577e-04
-1.977447420358657837e-02
-3.374880179762840271e-05
5.726874992251396179e-02
-1.426976959919556975e-04
6.289317389018833637e-04
-2.890542964451014996e-04
-6.954642594791948795e-05
2.024290588451549411e-04
1.924924144987016916e-04
-2.463154087308794260e-04
1.762835017871111631e-04
-3.101087349932640791e-04
-3.386267053429037333e-05
-1.262593868887051940e-04
1.231125497724860907e-04
-3.370372360222972929e-05
-2.052972849924117327e-04
-3.051022358704358339e-04
-1.328515500063076615e-04
-4.593083867803215981e-04
3.603670629672706127e-04
1.626884477445855737e-04
-1.160881874966435134e-04
4.499725473579019308e-04
-2.206569333793595433e-04
-7.938381284475326538e-02
-2.210432867286726832e-04
1.715142425382509828e-04
-1.827865198720246553e-04
4.018514882773160934e-04
1.353157422272488475e-04
4.589641466736793518e-04
7.477779872715473175e-04
1.762870815582573414e-04
-4.138322174549102783e-02
1.334794797003269196e-04
4.749751533381640911e-04
2.819393412210047245e-04
-2.014473266899585724e-02
1.771668321453034878e-04
-8.953368524089455605e-05
-2.971203357446938753e-04
-1.815359573811292648e-04
-4.698622797150164843e-04
-1.375919673591852188e-04
2.183207834605127573e-04
-1.264982711290940642e-04
-1.077921915566548705e-04
-2.506249875295907259e-04
-1.479618513258174062e-04
-4.593493940774351358e-04
3.206692636013031006e-04
-4.396551521494984627e-04
-4.593041085172444582e-04
-1.326010824413970113e-04
-2.649203815963119268e-04
-1.499271747888997197e-04
-8.449796587228775024e-05
-1.553530164528638124e-04
3.144722431898117065e-04
-4.324930487200617790e-04
4.007453098893165588e-04
-3.333918866701424122e-04
3.376083332113921642e-04
-1.043700962327420712e-03
-2.795306779444217682e-02
1.231341157108545303e-04
-1.508081622887402773e-04
1.225254527525976300e-04
4.539266228675842285e-04
-2.932543866336345673e-04
-2.505783049855381250e-04
1.743178145261481404e-04
-1.089580109692178667e-04
-6.223862874321639538e-05
-1.360377855598926544e-02
3.460525185801088810e-04
-4.324496840126812458e-04
-8.364171721041202545e-03
3.421256551519036293e-03
-3.313445020467042923e-03
3.198121557943522930e-04
5.443772897706367075e-05
3.240570949856191874e-04
-3.050505765713751316e-04
-4.323693574406206608e-04
3.234526375308632851e-04
1.328239159192889929e-04
1.980601227842271328e-04
-1.145260685007087886e-04
3.314601199235767126e-04
3.195308672729879618e-04
-3.042704774998128414e-04
-2.706069499254226685e-04
-1.426984672434628010e-04
1.715094986138865352e-04
3.198194608557969332e-04
-4.698118718806654215e-04
-7.209368050098419189e-04
1.980571832973510027e-04
-1.167108785011805594e-04
1.317072892561554909e-04
2.801711380016058683e-04
3.990194527432322502e-04
3.125945513602346182e-04
-4.064366221427917480e-02
-1.064661773853003979e-04
1.713101810310035944e-04
1.229336921824142337e-04
9.413824882358312607e-04
1.106584677472710609e-04
-5.891795153729617596e-04
-1.388619130011647940e-04
-1.089582437998615205e-04
5.520096048712730408e-03
-2.658551000058650970e-02
-6.377094425261020660e-03
7.006118539720773697e-05
-5.731984041631221771e-03
-1.085000840248540044e-04
1.046951161697506905e-03
-1.089586075977422297e-04
1.717839331831783056e-04
2.183137694373726845e-04
-4.193948989268392324e-04
-4.593576595652848482e-04
-2.052973286481574178e-04
2.967391628772020340e-04
2.744274388533085585e-04
2.929954207502305508e-04
3.125106450170278549e-04
6.020873479428701103e-05
6.653876334894448519e-05
-2.883699780795723200e-04
-3.361597191542387009e-05
2.091134811053052545e-04
-1.043702126480638981e-03
-3.754649660550057888e-04
1.229779736604541540e-04
2.553565427660942078e-04
1.424413785571232438e-04
2.953878429252654314e-04
1.762883766787126660e-04
4.034873563796281815e-04
-2.203805343015119433e-04
-1.002316566882655025e-04
-1.100325118750333786e-02
1.488646958023309708e-03
1.328244834439828992e-04
1.408899406669661403e-04
1.818129676394164562e-04
-2.931364579126238823e-04
-3.719121217727661133e-02
-2.416071365587413311e-04
-1.479548052884638309e-03
-3.112501290161162615e-04
1.713547535473480821e-04
1.105789269786328077e-04
1.353152329102158546e-04
3.119094180874526501e-04
9.406611789017915726e-04
-1.085823823814280331e-04
3.088074736297130585e-04
4.542821261566132307e-04
-1.453255536034703255e-04
-1.475396566092967987e-04
-3.755840589292347431e-04
3.653458843473345041e-04
-1.833813451230525970e-02
7.527909474447369576e-06
-2.901522675529122353e-04
-1.225720439106225967e-02
-2.649943053256720304e-04
-3.129784890916198492e-04
3.581311553716659546e-02
2.784482494462281466e-04
3.088242665398865938e-04
2.636883800732903183e-05
-1.096900887205265462e-04
1.021755277179181576e-03
1.812089048326015472e-02
2.743087825365364552e-04
-7.470005075447261333e-04
1.328255748376250267e-04
1.353138941340148449e-04
4.684446030296385288e-04
-3.112474514637142420e-04
-6.340708205243572593e-05
4.157440562266856432e-04
-1.147465300164185464e-04
3.314253408461809158e-04
4.961740341968834400e-04
1.266327599296346307e-04
1.737158163450658321e-04
-2.933195501100271940e-04
1.104682378354482353e-04
5.077996320324018598e-06
-1.129924130509607494e-04
1.317192509304732084e-04
-1.278197887586429715e-04
3.124503709841519594e-04
-2.929797919932752848e-04
1.301374140894040465e-04
-4.407269880175590515e-04
-4.225553420837968588e-04
-4.275045357644557953e-04
1.328039506915956736e-04
-2.900449908338487148e-04
1.728077186271548271e-04
6.247497349977493286e-02
1.039119902998209000e-03
-2.209624944953247905e-04
6.706584827043116093e-05
1.348987862002104521e-04
-2.855656493920832872e-04
-1.089585348381660879e-04
7.608648593304678798e-05
2.933492651209235191e-04
1.428971445420756936e-04
-1.826670340960845351e-04
-3.051029052585363388e-04
-3.112440172117203474e-04
-2.880653482861816883e-04
2.742551441770046949e-04
-4.087863024324178696e-03
1.004557218402624130e-02
3.146134258713573217e-04
4.014148435089737177e-04
3.173125442117452621e-04
-8.984176383819431067e-05
-1.077607957995496690e-04
7.641562819480895996e-02
-9.149048710241913795e-04
1.106781055568717420e-04
-1.064653333742171526e-04
-2.206122153438627720e-04
-1.010244304779917002e-04
-1.451130083296447992e-04
1.109774457290768623e-04
1.328192302025854588e-04
1.070018857717514038e-03
1.317076676059514284e-04
4.657302924897521734e-04
-1.826536754379048944e-04
3.197972546331584454e-04
1.341490278718993068e-04
9.376889793202280998e-04
-1.037980400724336505e-04
1.650113699724897742e-04
-2.942510473076254129e-04
-1.917787449201568961e-04
-9.640755160944536328e-05
1.109080403693951666e-04
-1.043713302351534367e-03
-1.010506603051908314e-04
2.928066533058881760e-04
-2.300948108313605189e-04
-1.087098135030828416e-04
1.266264880541712046e-04
-1.053446176229044795e-04
-3.380283305887132883e-05
2.470757171977311373e-04
-8.200977026717737317e-05
4.589015443343669176e-04
3.118641616310924292e-04
-2.463089185766875744e-04
-3.750143514480441809e-04
-1.060411741491407156e-04
-1.919049827847629786e-04
-4.324586770962923765e-04
-1.450291310902684927e-04
1.422756176907569170e-04
1.161007239716127515e-04
-2.533073711674660444e-04
3.172820142935961485e-04
-8.982403232948854566e-05
3.375971864443272352e-04
-2.665404463186860085e-04
1.542648096801713109e-04
-4.698147822637110949e-04
6.011500227032229304e-05
3.119597095064818859e-04
7.471976568922400475e-04
1.424477086402475834e-04
-1.090050573111511767e-04
2.911009360104799271e-04
1.718647690722718835e-04
1.350662787444889545e-04
-2.708276733756065369e-04
1.816734584281221032e-04
1.352972467429935932e-04
7.475530728697776794e-04
-1.823251513997092843e-04
-3.112498088739812374e-04
5.270288675092160702e-04
1.937292702496051788e-02
1.814609422581270337e-04
-7.416638545691967010e-03
8.229078375734388828e-04
-9.143744246102869511e-04
2.966717875096946955e-04
2.819293586071580648e-04
1.421764027327299118e-04
-2.052983472822234035e-04
-1.693152007646858692e-04
2.182592870667576790e-04
-4.396052681840956211e-04
-1.043708180077373981e-03
3.989991964772343636e-04
2.181234594900161028e-04
-8.998969133244827390e-05
-3.112392441835254431e-04
-7.217958336696028709e-04
-7.324707228690385818e-03
2.552991209086030722e-04
-8.692032657563686371e-03
-1.018341481540119275e-05
-6.606367533095180988e-04
-6.604739464819431305e-03
-1.034185515891294926e-06
-2.646864741109311581e-04
-8.702928607817739248e-05
-1.135423881351016462e-04
-2.210280945291742682e-04
4.000415719929151237e-05
-4.638434620574116707e-04
-2.969170454889535904e-04
1.069953199476003647e-03
8.229025988839566708e-04
-1.087084165192209184e-04
-3.347138408571481705e-05
1.230147317983210087e-04
3.314511268399655819e-04
-2.824036928359419107e-04
4.538356151897460222e-04
-9.615450835553929210e-05
2.260717796161770821e-03
4.857045423705130816e-04
1.752087700879201293e-04
2.927724563051015139e-04
3.191481810063123703e-04
-2.942807623185217381e-04
1.159792591352015734e-04
-1.492820592829957604e-04
-2.671326801646500826e-04
-2.533704100642353296e-04
4.961860249750316143e-04
-1.145215283031575382e-04
5.202994725550524890e-05
-1.381907705217599869e-02
-1.064671378117054701e-04
-2.099500736221671104e-03
2.560939756222069263e-04
-2.266951050842180848e-04
-3.712375648319721222e-03
2.305777452420443296e-04
1.410055439919233322e-03
-1.769760041497647762e-03
-3.381195128895342350e-04
-1.395712606608867645e-04
1.062266455846838653e-04
-3.079976886510848999e-04
2.153013047063723207e-04
3.027583297807723284e-04
-3.573137894272804260e-02
-4.698357952293008566e-04
-2.508219331502914429e-04
5.001145182177424431e-04
-2.616891870275139809e-03
-5.360168870538473129e-05
2.793913590721786022e-04
-5.135093233548104763e-04
-2.257371786981821060e-03
-2.300433843629434705e-04
-3.298297524452209473e-03
2.602181048132479191e-04
2.449914463795721531e-04
-1.593629643321037292e-02
-1.044053211808204651e-02
5.203508213162422180e-02
1.044387812726199627e-03
3.240444348193705082e-04
1.965476199984550476e-02
-2.159854775527492166e-04
2.581686479970812798e-03
1.350669481325894594e-04
-4.035659949295222759e-04
-1.328964601270854473e-03
-1.238765544258058071e-04
1.159729290520772338e-04
-5.085131124360486865e-05
-8.948140311986207962e-04
1.412722282111644745e-03
1.888974383473396301e-02
2.902010455727577209e-04
-2.753075398504734039e-02
-2.223788615083321929e-04
-1.872762292623519897e-02
-3.637174516916275024e-02
-6.076313927769660950e-02
1.115846727043390274e-02
-2.862954570446163416e-04
2.827372588217258453e-02
2.434738678857684135e-03
2.491644769906997681e-02
4.535389598459005356e-04
-2.004197426140308380e-02
-3.515874035656452179e-03
-3.722343171830289066e-05
9.640525677241384983e-04
7.608660962432622910e-05
6.872128869872540236e-05
-2.024178020656108856e-02
-5.022714321967214346e-05
-2.124991442542523146e-04
-5.835169926285743713e-03
9.869552013697102666e-05
-5.337611073628067970e-04
-1.220667545567266643e-04
-4.393131530378013849e-04
-4.321340020396746695e-05
3.601583885028958321e-04
5.571229266934096813e-04
-8.213532419176772237e-05
1.929359394125640392e-03
-2.932194329332560301e-04
-1.996060600504279137e-03
-1.098691645893268287e-04
3.294015675783157349e-02
-1.276495022466406226e-04
-2.765319368336349726e-04
-9.294567629694938660e-03
-1.117276307195425034e-02
-3.890413790941238403e-02
6.362931802868843079e-03
2.377490140497684479e-02
-8.703366853296756744e-03
-1.196782756596803665e-02
-1.113595426431857049e-04
1.046555233187973499e-03
-2.302620932459831238e-02
-1.710273063508793712e-04
-5.252751288935542107e-04
-6.671194452792406082e-03
-6.677337456494569778e-03
1.820311299525201321e-04
-4.236139357089996338e-02
-1.264309138059616089e-02
-5.887993797659873962e-02
-2.544881403446197510e-02
-2.738524635788053274e-04
-6.009975448250770569e-03
1.874274130386766046e-05
-5.188639741390943527e-03
1.358881854685023427e-04
1.744694964145310223e-05
2.310364972800016403e-03
-4.202708601951599121e-02
3.240278456360101700e-03
1.853925175964832306e-02
-3.913349471986293793e-03
4.748637147713452578e-04
1.223223807755857706e-05
-5.054180510342121124e-03
-5.031686276197433472e-03
-2.299464249517768621e-04
-7.558588404208421707e-04
-4.418851342052221298e-03
3.515513986349105835e-02
1.087484066374599934e-03
-1.035172972478903830e-04
-3.792947100009769201e-04
2.107492473442107439e-04
1.506215147674083710e-02
-3.765429183840751648e-02
3.456550464034080505e-02
4.499281640164554119e-04
-4.834812507033348083e-02
2.094593271613121033e-02
3.458307764958590269e-05
-4.629285467672161758e-05
1.690695062279701233e-04
3.585227951407432556e-02
-9.444391354918479919e-03
1.825431245379149914e-04
1.530126610305160284e-04
-1.368791703134775162e-02
-3.579466789960861206e-02
-2.074087038636207581e-03
-2.050991606665775180e-04
-1.087102791643701494e-04
-2.702489437069743872e-04
-4.440689086914062500e-02
1.369366329163312912e-02
-3.363755968166515231e-05
1.737647689878940582e-04
4.962164675816893578e-04
1.341490278718993068e-04
-1.085822223103605211e-04
-1.450209092581644654e-04
-4.698346601799130440e-04
-2.692038251552730799e-04
-2.302476350450888276e-04
2.843851037323474884e-02
-4.297333303838968277e-03
1.388381642755120993e-04
1.509038847871124744e-03
-9.557352750562131405e-04
-3.390141949057579041e-02
-8.195563219487667084e-03
4.498256894294172525e-04
-1.712100813165307045e-03
1.574875973165035248e-02
2.580496110022068024e-02
-1.899461640277877450e-04
-2.681609988212585449e-02
-2.636282879393547773e-04
-1.483400352299213409e-03
3.114792890846729279e-02
2.051108051091432571e-03
3.484059197944588959e-05
1.432787685189396143e-04
4.657896060962229967e-04
1.508527155965566635e-02
-4.303776100277900696e-02
-1.488507841713726521e-04
4.859662149101495743e-03
-2.968773990869522095e-02
3.380234166979789734e-02
2.754227258265018463e-03
-2.879816165659576654e-04
3.296501701697707176e-03
-1.877146400511264801e-02
-4.314066842198371887e-02
-2.466158184688538313e-04
-7.874990697018802166e-04
1.157468141173012555e-04
-1.328863203525543213e-03
-7.081744843162596226e-05
3.350560436956584454e-04
-4.088388290256261826e-03
-9.656057227402925491e-05
-1.264700258616358042e-04
-1.340097561478614807e-02
-3.406236646696925163e-03
2.931040944531559944e-04
3.346307785250246525e-04
9.478377178311347961e-03
-6.954698357731103897e-03
-1.942845556186512113e-04
2.553151862230151892e-04
3.082763869315385818e-03
-1.731410063803195953e-02
1.449546404182910919e-02
-2.032461389899253845e-02
2.049074042588472366e-03
-1.214908994734287262e-02
-2.699093334376811981e-02
-1.018396764993667603e-02
4.595041275024414062e-02
7.370350882411003113e-03
-1.145038186223246157e-04
9.035423398017883301e-03
1.524050347506999969e-02
8.182714809663593769e-04
1.713882520562037826e-04
1.378264714730903506e-04
-5.591801926493644714e-02
-2.415889315307140350e-02
6.492153275758028030e-03
4.430712724570184946e-04
-1.937935501337051392e-02
-2.756828069686889648e-02
1.028420374495908618e-04
-1.297081075608730316e-02
-9.672767668962478638e-02
-1.931965671246871352e-04
3.815840464085340500e-04
2.013464644551277161e-02
3.572856076061725616e-05
1.879328489303588867e-02
7.477268809452652931e-04
-1.479611819377169013e-04
1.462223735870793462e-04
-1.722402125597000122e-02
3.314144851174205542e-04
3.849154338240623474e-02
-2.260204404592514038e-02
2.463853545486927032e-02
2.851325459778308868e-02
-8.987901674117892981e-05
-4.741441830992698669e-02
-1.089030294679105282e-03
-1.841946318745613098e-02
-2.056032826658338308e-04
9.126617223955690861e-04
-9.661023068474605680e-05
-8.410731243202462792e-05
1.762492902344092727e-04
-1.281744480365887284e-04
-8.012059261091053486e-04
-2.536419196985661983e-04
9.068493382073938847e-04
-4.088138812221586704e-04
-3.014480508863925934e-02
2.109194902004674077e-04
1.111927814781665802e-02
3.279637021478265524e-04
-4.154462658334523439e-05
-2.933182695414870977e-04
-3.027457860298454762e-04
-4.074405296705663204e-04
8.599037537351250648e-04
6.670712900813668966e-05
5.343633890151977539e-02
1.086858380585908890e-02
-1.922051160363480449e-04
-2.463395474478602409e-03
2.193785645067691803e-02
-8.294353634119033813e-02
-1.193310599774122238e-02
5.333800800144672394e-04
2.387694083154201508e-03
-4.109236397198401392e-05
-7.472157478332519531e-03
-1.281779259443283081e-04
-6.332628254313021898e-05
-1.290170912398025393e-04
6.501371040940284729e-03
-3.541100025177001953e-02
-8.937653037719428539e-04
1.008307095617055893e-02
-4.180303961038589478e-02
6.746487691998481750e-03
9.068400249816477299e-04
-4.181107506155967712e-04
4.536495252978056669e-04
-7.650482933968305588e-03
-1.194390561431646347e-02
-6.762843113392591476e-04
-3.997329913545399904e-04
-4.698710108641535044e-04
4.489044949878007174e-04
-1.875071175163611770e-04
-2.680577151477336884e-02
-2.861911198124289513e-04
2.454549446702003479e-02
-1.678026467561721802e-02
2.606264688074588776e-02
-5.381477531045675278e-03
3.193427401129156351e-04
-2.366795204579830170e-02
-1.594082277733832598e-05
1.929493807256221771e-02
-3.585981030482798815e-04
-9.003320708870887756e-03
8.020018867682665586e-05
-9.957602247595787048e-03
2.494615502655506134e-02
5.090625490993261337e-03
-9.397236281074583530e-04
-1.918400812428444624e-04
-1.012141510727815330e-04
8.127978071570396423e-03
6.092157214879989624e-03
1.713267556624487042e-04
-3.322340920567512512e-02
4.308200627565383911e-02
-1.052276324480772018e-02
-3.263021353632211685e-04
-1.085827825590968132e-04
-1.898829266428947449e-02
4.876920953392982483e-03
-3.836198896169662476e-02
-2.506116579752415419e-04
-5.390978185459971428e-05
4.489524872042238712e-04
-1.053646410582587123e-04
3.375939559191465378e-04
1.527842105133458972e-04
1.322369207628071308e-04
2.111510839313268661e-04
-1.060397626133635640e-04
-6.913171964697539806e-04
6.436693947762250900e-04
-1.064669631887227297e-04
1.402008492732420564e-04
-1.479617785662412643e-04
-7.704191841185092926e-03
8.130511560011655092e-05
-7.224087603390216827e-04
-1.573531044414266944e-04
-1.291560009121894836e-02
-7.827688386896625161e-05
-2.962436527013778687e-02
-2.387419110164046288e-03
3.262344049289822578e-03
-4.640619270503520966e-03
2.239528344944119453e-03
1.154618989676237106e-02
-1.583934947848320007e-02
7.021444616839289665e-04
-1.820260891690850258e-03
-1.494423486292362213e-04
-3.256366029381752014e-02
5.078137292002793401e-06
-2.117945998907089233e-02
1.539945043623447418e-02
5.328805185854434967e-03
-1.818120799725875258e-04
-1.520670921308919787e-04
-5.449961870908737183e-03
4.816298605874180794e-04
5.024567362852394581e-04
2.517872117459774017e-02
4.625421017408370972e-03
3.493616241030395031e-04
1.656242646276950836e-03
-6.013790880388114601e-06
-1.116265193559229374e-03
-4.844953306019306183e-03
3.087983641307801008e-04
6.757930532330647111e-05
-6.763453129678964615e-03
-3.633993864059448242e-02
1.407662057317793369e-04
-2.380734076723456383e-05
1.637363857298623770e-05
2.687867730855941772e-03
9.744096314534544945e-04
2.167120110243558884e-04
-6.072359159588813782e-03
-1.863452978432178497e-02
-2.679400891065597534e-02
-5.480935331434011459e-03
-1.395936217159032822e-02
5.854951683431863785e-03
-5.005898326635360718e-02
6.254261732101440430e-02
1.580677367746829987e-02
2.001912891864776611e-02
3.028898208867758512e-04
-1.150535326451063156e-02
-1.869685202836990356e-02
-1.043948344886302948e-02
-2.943087310995906591e-04
-2.955628326162695885e-03
5.220583174377679825e-03
-2.360215596854686737e-02
1.307092234492301941e-02
4.949414171278476715e-03
2.823374525178223848e-04
-2.809032448567450047e-04
-5.448005348443984985e-02
-2.348992228507995605e-02
-6.180990859866142273e-02
-1.048912853002548218e-02
-7.220624247565865517e-04
2.325508929789066315e-02
-4.484108067117631435e-04
-6.261860951781272888e-03
-8.239031740231439471e-05
-1.202645871671847999e-04
1.587173319421708584e-04
6.781291216611862183e-03
-5.088181234896183014e-03
-2.477986551821231842e-02
5.042307823896408081e-02
5.843320861458778381e-02
8.969168178737163544e-03
2.396049676463007927e-04
2.871407559723593295e-06
-3.744083270430564880e-02
-3.917181864380836487e-02
2.316566824447363615e-04
1.328266371274366975e-04
1.819902827264741063e-04
1.743189932312816381e-04
1.301806914852932096e-04
4.961785161867737770e-04
3.944608324673026800e-04
-8.991737558972090483e-05
-4.698721459135413170e-04
-2.765320823527872562e-04
-2.689991088118404150e-04
-1.582983508706092834e-02
-2.045112341875210404e-04
-1.089584911824204028e-04
-8.693143900018185377e-05
-2.891400654334574938e-04
-1.951332204043865204e-02
-8.533558808267116547e-03
1.601351052522659302e-02
-1.497272867709398270e-02
-2.206343633588403463e-04
-1.553184847580268979e-04
2.801581867970526218e-04
2.473766799084842205e-04
5.632481770589947701e-04
4.498763591982424259e-04
3.280871605966240168e-04
-1.053437954396940768e-04
-4.232616920489817858e-04
1.098963804543018341e-02
1.396722625941038132e-02
-7.202092558145523071e-02
-5.784077802672982216e-04
7.139997906051576138e-04
9.572461247444152832e-03
-7.845381274819374084e-03
-4.336891870480030775e-04
1.994074694812297821e-02
-5.909284576773643494e-02
-8.794802241027355194e-03
3.314711502753198147e-04
-1.261969737242907286e-04
2.979670825880020857e-04
7.012762944214046001e-04
-2.302684733876958489e-04
1.820877223508432508e-04
2.475749060977250338e-04
2.565381000749766827e-04
1.785425847629085183e-04
-2.888882008846849203e-04
1.300443400396034122e-04
-8.411122689722105861e-05
-1.129374359152279794e-04
3.285413258709013462e-04
3.235288604628294706e-04
3.235029289498925209e-04
1.716492988634854555e-04
-3.112500708084553480e-04
-1.077509223250672221e-04
1.430000702384859324e-04
4.670414200518280268e-04
-9.647458500694483519e-05
-2.976696705445647240e-04
4.961933591403067112e-04
-2.881131367757916451e-04
-2.206245262641459703e-04
-3.112421254627406597e-04
3.232957387808710337e-04
-4.485272220335900784e-04
3.240295627620071173e-04
-2.930484188254922628e-04
-3.358797403052449226e-05
-4.398882156237959862e-04
1.428982359357178211e-04
-2.708071260713040829e-04
1.133717159973457456e-04
3.197709738742560148e-04
-9.655477333581075072e-05
-4.698486882261931896e-04
-8.428333967458456755e-05
-7.883841171860694885e-03
2.833009348250925541e-04
4.138663061894476414e-04
4.992487956769764423e-04
-2.626636065542697906e-02
-3.354938235133886337e-04
-2.544937096536159515e-02
3.291055327281355858e-04
4.587196744978427887e-04
2.112705493345856667e-03
-2.794129401445388794e-02
4.961997037753462791e-04
-1.539386110380291939e-03
-7.099391223164275289e-05
1.937672309577465057e-02
4.184229671955108643e-02
-1.916539767989888787e-04
4.222668212605640292e-05
9.855030104517936707e-03
4.050808493047952652e-04
6.365846376866102219e-03
-9.690129011869430542e-02
6.469386426033452153e-05
-1.111247483640909195e-02
1.620221696794033051e-02
1.382220257073640823e-02
8.008963050087913871e-05
3.376034437678754330e-04
3.881586343050003052e-02
4.961629747413098812e-04
-1.557544019306078553e-04
-4.392507544253021479e-04
1.821886835386976600e-04
2.392544847680255771e-04
-2.210157836088910699e-04
1.105802657548338175e-04
-2.859825035557150841e-04
-2.187033824156969786e-04
1.224496809300035238e-04
1.713844249024987221e-04
8.669600822031497955e-03
5.795148172182962298e-05
3.253286995459347963e-04
-4.258853197097778320e-02
-2.823798730969429016e-02
-1.730250194668769836e-03
-1.998763531446456909e-02
3.119544999208301306e-04
-1.858167088357731700e-04
-3.353557258378714323e-05
1.443142164498567581e-02
4.658068646676838398e-04
-4.422222077846527100e-02
-1.456353161484003067e-02
-2.601244254037737846e-03
3.099553473293781281e-02
3.144530346617102623e-04
3.263525664806365967e-03
3.900538757443428040e-02
-1.010892912745475769e-02
-6.006400100886821747e-03
-3.245875996071845293e-04
-1.358846551738679409e-03
-3.564820508472621441e-04
-4.773578257299959660e-04
-2.795443497598171234e-02
-8.823595126159489155e-04
4.961644299328327179e-04
1.545018749311566353e-04
3.958449512720108032e-02
-1.373510994017124176e-02
-2.536059182602912188e-04
-5.011006072163581848e-02
3.315428330097347498e-04
1.062429323792457581e-02
-2.829979639500379562e-04
1.412080600857734680e-04
3.543691337108612061e-02
-3.460812382400035858e-03
-1.049783968483097851e-04
-5.291194468736648560e-02
-3.001066483557224274e-02
4.993441325495950878e-05
-3.265449032187461853e-02
1.795581728219985962e-02
4.863641806878149509e-04
5.986613221466541290e-03
-2.533410151954740286e-04
1.768503896892070770e-02
5.332136526703834534e-03
2.164783701300621033e-02
-1.058826601365581155e-04
3.297761431895196438e-04
1.572479307651519775e-02
-3.220915049314498901e-02
-2.419436714262701571e-05
-1.388155360473319888e-04
8.326738141477108002e-03
-4.770081862807273865e-02
-1.972488313913345337e-02
-3.504376485943794250e-02
-7.213911972939968109e-03
3.800785925704985857e-04
1.424263603985309601e-02
-4.106545448303222656e-02
5.513347685337066650e-03
-1.988998148590326309e-03
1.083744791685603559e-04
2.023067511618137360e-02
1.476848684251308441e-02
-3.684403200168162584e-04
1.591782202012836933e-04
9.893590686260722578e-06
-2.937718480825424194e-02
-1.550715649500489235e-03
2.620584273245185614e-04
4.749012296088039875e-04
-1.770262024365365505e-04
-8.784369565546512604e-03
-1.720054191537201405e-03
-2.359568886458873749e-02
-7.587720453739166260e-02
7.663458236493170261e-04
-2.832593768835067749e-02
-8.407328277826309204e-04
2.360120124649256468e-04
-5.019062664359807968e-03
4.961879458278417587e-04
4.312794771976768970e-04
-3.795946213358547539e-06
1.115877385018393397e-04
-1.043599913828074932e-03
1.643463596701622009e-02
5.741392448544502258e-02
-2.772371098399162292e-02
5.443048197776079178e-03
-1.043687690980732441e-03
-3.547892346978187561e-02
4.817874357104301453e-02
-3.630356397479772568e-03
2.437895908951759338e-02
-3.847437677904963493e-03
3.201750572770833969e-03
-2.820217423141002655e-02
-2.417918667197227478e-02
7.277646660804748535e-02
-1.156775094568729401e-02
-3.112458798568695784e-04
1.747348927892744541e-03
8.610948920249938965e-03
-4.601753130555152893e-02
2.325702644884586334e-02
3.899241983890533447e-02
-9.402996860444545746e-03
-3.847108408808708191e-02
1.793384552001953125e-02
3.376083914190530777e-04
-4.338086768984794617e-02
-3.449165076017379761e-02
-2.008086070418357849e-02
-2.970613911747932434e-02
-4.091432318091392517e-02
-8.661496685817837715e-04
1.412844564765691757e-02
-4.838966298848390579e-03
1.865829713642597198e-02
-1.274785754503682256e-04
-8.974497905001044273e-05
-3.738393308594822884e-03
7.273640949279069901e-05
-6.110697239637374878e-02
3.990329860243946314e-04
8.908635936677455902e-04
2.139263413846492767e-02
4.477728530764579773e-02
3.765921574085950851e-04
-1.001834389171563089e-04
8.780813775956630707e-03
-3.282832354307174683e-02
-1.200518570840358734e-02
5.406133830547332764e-02
2.102793194353580475e-02
1.895442139357328415e-03
4.846820607781410217e-03
6.371625233441591263e-03
-1.688443589955568314e-04
-1.608224958181381226e-02
-2.971141948364675045e-04
4.322078078985214233e-02
-1.322237495332956314e-02
-5.711939884349703789e-04
6.821885704994201660e-02
-6.816307082772254944e-03
-6.889346987009048462e-02
-1.191806513816118240e-02
-6.891905795782804489e-03
-2.478928363416343927e-04
-2.056764625012874603e-02
-1.046268120408058167e-01
-9.856073185801506042e-03
-5.792154744267463684e-02
-8.432951755821704865e-03
6.741161923855543137e-03
5.969077348709106445e-03
1.648966805078089237e-03
-5.756900180131196976e-03
5.416558124125003815e-03
2.281117340316995978e-04
1.391490077367052436e-04
-1.398862339556217194e-02
-3.585942977224476635e-05
4.670989001169800758e-04
-2.088628895580768585e-02
-5.702752992510795593e-02
-1.815761206671595573e-04
1.568830572068691254e-02
1.430008560419082642e-04
-3.897058923030272126e-05
9.769779630005359650e-03
-3.029214218258857727e-03
-1.858148537576198578e-02
-3.943075984716415405e-02
-5.205737799406051636e-02
-2.345350943505764008e-02
-1.106114592403173447e-02
-2.663818374276161194e-02
1.178040914237499237e-02
-1.456631434848532081e-04
1.316540292464196682e-04
-6.156729999929666519e-03
1.072006300091743469e-02
5.309095233678817749e-02
-3.149999305605888367e-02
4.831953719258308411e-02
6.050095180398784578e-06
1.617074199020862579e-02
-1.916657638503238559e-04
-7.562523707747459412e-03
-3.427499532699584961e-02
2.240530773997306824e-02
-1.446588244289159775e-02
-3.436490148305892944e-02
-1.800831814762204885e-04
-2.481228113174438477e-02
-3.149646893143653870e-02
-2.583329624030739069e-04
1.346359960734844208e-02
-8.969417103799059987e-05
1.353158149868249893e-04
-1.134725753217935562e-02
1.348574738949537277e-02
-1.490887661930173635e-04
-1.562046445906162262e-02
3.319039242342114449e-04
2.121175173670053482e-03
-5.029167514294385910e-03
3.124975482933223248e-04
1.055899701896123588e-04
-2.670670114457607269e-02
-2.347205765545368195e-02
-1.045043300837278366e-02
-5.382926389575004578e-02
-4.356671706773340702e-04
-2.877766382880508900e-04
-4.421731084585189819e-02
-1.266224862774834037e-04
-7.928296923637390137e-03
-2.017607184825465083e-04
5.513320138561539352e-05
-8.179945871233940125e-04
-6.612756103277206421e-02
2.385374536970630288e-04
-8.668565424159169197e-04
4.700209572911262512e-02
-3.368155448697507381e-04
-5.848076543770730495e-04
-2.530846686568111181e-04
5.915555171668529510e-03
-3.317163558676838875e-03
-6.796069792471826077e-04
8.280351903522387147e-05
1.639677211642265320e-04
-3.112509730271995068e-04
-2.929267066065222025e-04
7.022978970780968666e-04
3.144911897834390402e-04
-3.104782372247427702e-04
-1.160858591902069747e-04
-1.160967003670521080e-04
-1.030147177516482770e-04
-3.314530840725637972e-05
-3.017570124939084053e-04
-8.224907651310786605e-05
-8.297261229017749429e-05
-4.232512728776782751e-04
1.716562837827950716e-04
6.013018355588428676e-05
-5.377580411732196808e-03
3.884494071826338768e-04
-1.952163502573966980e-02
-2.574041427578777075e-04
-5.048713181167840958e-03
-1.919140631798654795e-04
-4.592992772813886404e-04
-1.169481407850980759e-02
-1.823948987293988466e-04
1.532019523438066244e-04
1.069950871169567108e-03
2.181130985263735056e-04
-4.232781648170202971e-04
3.240027872379869223e-04
-1.089566430891864002e-04
2.743621298577636480e-04
-3.746491274796426296e-04
6.014235987095162272e-05
-3.112505073659121990e-04
-2.706141967792063951e-04
4.587335279211401939e-04
9.403290459886193275e-04
-2.879754174500703812e-04
-4.383171617519110441e-04
1.274180394830182195e-04
-9.613475413061678410e-05
-3.362129064043983817e-05
1.543170947115868330e-04
1.714391692075878382e-04
-4.323363245930522680e-04
-1.717080594971776009e-04
3.193388401996344328e-04
1.350671518594026566e-04
-1.488515990786254406e-04
-6.859781686216592789e-03
1.341492170467972755e-04
1.719982392387464643e-04
-1.844568614615127444e-04
7.014190778136253357e-04
-4.526636330410838127e-04
-5.023920908570289612e-03
-1.046106964349746704e-02
-2.200170047581195831e-02
-7.222943822853267193e-04
-2.931462659034878016e-04
4.961690865457057953e-04
-7.227486348710954189e-04
2.084109873976558447e-04
-2.649041125550866127e-04
-1.053493615472689271e-04
1.341166207566857338e-04
3.195442841388285160e-04
-1.527766929939389229e-03
-2.270932309329509735e-03
-4.680548608303070068e-02
-1.609821047168225050e-04
3.783438121899962425e-03
5.560028832405805588e-03
8.200634038075804710e-04
3.087455406785011292e-04
-9.694882464827969670e-05
-9.015642106533050537e-03
-1.539221219718456268e-02
4.856891755480319262e-04
-1.144849011325277388e-04
2.793224120978266001e-04
3.285348066128790379e-04
-1.899009943008422852e-02
-1.479617494624108076e-04
1.229487097589299083e-04
-1.453162403777241707e-04
4.747697676066309214e-04
-9.000730642583221197e-05
-2.625364286359399557e-04
3.144466318190097809e-04
-2.213800034951418638e-04
-4.186650621704757214e-04
3.016610862687230110e-04
-3.785958106163889170e-04
-6.745458813384175301e-04
-1.499304635217413306e-04
-1.087097407435066998e-04
-2.859860251192003489e-04
-4.210845800116658211e-04
-8.965597226051613688e-05
-1.554312621010467410e-04
-4.389679525047540665e-04
2.909568429458886385e-04
1.542273967061191797e-04
-2.504193398635834455e-04
-4.384470521472394466e-04
-4.385567153804004192e-04
-7.825549691915512085e-04
1.000930569716729224e-05
-1.043640193529427052e-03
1.086345801013521850e-04
-4.593277990352362394e-04
-3.539251163601875305e-03
2.832467725966125727e-04
-1.034144152072258294e-04
-3.086534561589360237e-04
6.141720223240554333e-04
-1.717633276712149382e-04
-4.393932595849037170e-02
-1.028150040656328201e-02
6.033843383193016052e-04
-4.447363317012786865e-03
-1.021120622754096985e-01
-6.231794250197708607e-04
-2.003045054152607918e-03
-7.216071244329214096e-04
1.526833366369828582e-04
-2.530537021812051535e-04
-2.617173641920089722e-02
-2.204284537583589554e-04
-8.861385285854339600e-04
-4.796269058715552092e-05
2.197383946622721851e-05
2.422398142516613007e-02
1.593645475804805756e-02
4.040789208374917507e-04
-2.049329341389238834e-04
-1.086700474843382835e-03
-1.135652512311935425e-02
-2.278630062937736511e-02
-5.478760431287810206e-05
-6.677765399217605591e-03
2.783744828775525093e-03
-5.813528317958116531e-03
5.592788802459836006e-04
1.408804528182372451e-04
3.169917035847902298e-04
4.697917774319648743e-02
-2.105483412742614746e-02
7.015420123934745789e-04
6.441555451601743698e-03
9.472885285504162312e-04
-2.819478046149015427e-03
-9.054194204509258270e-03
-1.380759030580520630e-01
-1.628734357655048370e-02
3.695048391819000244e-02
-3.023248910903930664e-02
-7.040254026651382446e-02
-2.732955850660800934e-02
-4.423150676302611828e-04
-6.221141293644905090e-02
-1.335064023733139038e-01
-1.528744120150804520e-02
-2.385797537863254547e-02
3.196639590896666050e-04
-1.053480300470255315e-04
-3.023464605212211609e-02
-6.246617529541254044e-03
-1.160889005404897034e-04
1.035695604514330626e-04
9.447161108255386353e-02
4.978957027196884155e-02
5.768859386444091797e-02
1.752088282955810428e-04
1.782477460801601410e-02
7.657943665981292725e-02
-4.700760822743177414e-03
2.284240350127220154e-02
-1.058763563632965088e-01
-1.088671851903200150e-03
-1.281734462827444077e-02
-1.034236885607242584e-02
1.372044999152421951e-02
-2.108417247654870152e-04
-3.112512640655040741e-04
-4.162789555266499519e-04
-2.521566487848758698e-02
-5.808565183542668819e-04
1.431145792594179511e-04
-6.264584511518478394e-02
3.488114848732948303e-02
3.894300665706396103e-03
2.564862743020057678e-02
1.115359133109450340e-03
2.031535550486296415e-04
1.005978602916002274e-02
-1.717925257980823517e-02
-2.825603634119033813e-02
-1.254372447729110718e-01
2.898159623146057129e-02
-7.368095964193344116e-02
-3.528745844960212708e-02
-1.546567957848310471e-02
-5.351426079869270325e-02
-4.698563134297728539e-04
2.214358391938731074e-04
1.049313650582917035e-04
6.461887061595916748e-02
4.747145285364240408e-04
2.634754637256264687e-03
5.237931385636329651e-02
6.858038157224655151e-02
6.479807198047637939e-02
3.190790012013167143e-04
-2.875871956348419189e-02
2.023839624598622322e-04
-3.632489824667572975e-03
-1.362363435328006744e-02
-4.996630921959877014e-02
-3.874454880133271217e-03
-1.190791931003332138e-02
-6.708324886858463287e-03
1.913575269281864166e-02
5.047904327511787415e-03
1.349397061858326197e-04
1.467248657718300819e-04
-5.225323140621185303e-03
-3.564215032383799553e-03
1.738957798806950450e-04
-2.956036292016506195e-02
2.629921073094010353e-04
4.929824173450469971e-02
1.000576280057430267e-02
5.071885534562170506e-04
7.047838997095823288e-03
-5.287121608853340149e-02
2.399992384016513824e-02
-9.863074868917465210e-03
-3.657424077391624451e-02
7.945822289912030101e-06
-1.816168311052024364e-03
4.293473437428474426e-03
2.016544900834560394e-02
2.704500779509544373e-02
-2.531257923692464828e-04
-2.674410492181777954e-02
-9.656483307480812073e-03
4.427196457982063293e-02
1.743190368870273232e-04
1.955982483923435211e-02
-5.679580941796302795e-02
-6.319321255432441831e-05
3.406938165426254272e-02
2.795579785015434027e-04
-2.134067937731742859e-02
-2.706780098378658295e-02
-1.827600598335266113e-02
-3.502758336253464222e-04
-3.637870249804109335e-04
-1.471673604100942612e-03
-2.971964702010154724e-02
-9.556411206722259521e-02
4.340303596109151840e-03
2.422750403638929129e-04
-1.077875494956970215e-04
-5.132196383783593774e-05
1.599133759737014771e-02
1.161513151600956917e-03
4.588686279021203518e-04
-4.220931977033615112e-02
2.057483943644911051e-04
2.441056258976459503e-02
6.977682933211326599e-03
3.226630506105720997e-04
3.094875952228903770e-03
-1.749148592352867126e-02
1.485340949147939682e-02
-7.099223876139149070e-05
1.654528267681598663e-02
6.524999160319566727e-03
4.055701568722724915e-02
2.402499690651893616e-02
7.157558947801589966e-02
-4.055769182741641998e-03
4.652628267649561167e-04
-7.320442050695419312e-02
3.190313652157783508e-02
-2.098898775875568390e-02
-2.825492992997169495e-04
-5.492764175869524479e-04
-6.398068368434906006e-02
-5.327398329973220825e-02
2.589086652733385563e-04
3.291015455033630133e-04
-2.323104068636894226e-02
-7.408033125102519989e-03
-4.906680900603532791e-03
1.711334771243855357e-04
-1.515517942607402802e-02
2.045424917014315724e-04
-4.267496615648269653e-02
-1.930536888539791107e-02
-5.009000306017696857e-04
-1.667890683165751398e-05
1.159798994194716215e-04
4.577180836349725723e-03
-4.354941099882125854e-02
-3.124053217470645905e-02
1.348990626865997910e-04
3.583935904316604137e-04
-2.252564206719398499e-02
4.032087698578834534e-02
6.658341735601425171e-02
2.319652994628995657e-04
-3.632717579603195190e-02
2.116046287119388580e-02
2.498856745660305023e-03
1.543225441128015518e-02
1.397755113430321217e-04
1.549794990569353104e-02
-9.422596544027328491e-03
3.820075467228889465e-02
3.888606652617454529e-02
-3.858731687068939209e-02
1.713766396278515458e-04
-7.621529698371887207e-02
-2.517542988061904907e-02
-2.295898087322711945e-02
1.350671518594026566e-04
-7.466900628060102463e-03
-5.518648540601134300e-04
1.709908246994018555e-02
-1.729023642838001251e-02
-2.881886321119964123e-04
-9.871581569314002991e-03
5.713280756026506424e-03
1.142750334111042321e-04
-2.108096610754728317e-03
-5.049788951873779297e-02
-5.712729180231690407e-04
-7.171392906457185745e-03
2.367396466434001923e-02
-1.818735897541046143e-02
5.794794196845032275e-05
1.762892788974568248e-04
5.336577538400888443e-03
4.541972652077674866e-03
3.904843833879567683e-05
6.018616477376781404e-05
-8.921539847506210208e-05
-6.368707865476608276e-02
-3.191032679751515388e-03
-1.957511849468573928e-04
-5.070890183560550213e-04
-2.969160443171858788e-03
6.441874057054519653e-02
1.062346622347831726e-03
3.767564892768859863e-02
-3.092929534614086151e-02
1.166065037250518799e-02
3.659203276038169861e-02
1.633524708449840546e-02
9.027840860653668642e-05
-2.303472161293029785e-02
1.160419051302596927e-04
1.000166957965120673e-05
3.161198645830154419e-02
-2.893449366092681885e-02
-3.051075909752398729e-04
-5.908517166972160339e-02
-4.515096545219421387e-02
-2.968090958893299103e-02
9.130512364208698273e-03
-2.930586633738130331e-04
-1.104404591023921967e-02
-1.245701219886541367e-03
6.586071685887873173e-04
8.692635223269462585e-03
-4.664025455713272095e-02
3.035921545233577490e-04
-2.333614230155944824e-02
4.153342917561531067e-02
-9.964657947421073914e-03
5.990158533677458763e-04
-4.698173725046217442e-04
1.940551301231607795e-04
1.193194463849067688e-02
-3.909175470471382141e-02
2.503681229427456856e-03
-3.663829714059829712e-02
-7.671762723475694656e-03
6.326176226139068604e-02
2.816183678805828094e-02
1.737352285999804735e-04
-4.642838239669799805e-02
-3.843288868665695190e-02
2.924852306023240089e-04
-3.738327941391617060e-04
1.349110808223485947e-02
3.192277799826115370e-04
-3.251541405916213989e-02
3.562542796134948730e-02
2.513695217203348875e-04
7.447427487932145596e-04
2.127875268342904747e-05
-5.189316347241401672e-03
-2.647232613526284695e-04
-1.485682005295529962e-04
3.233019378967583179e-04
5.445848801173269749e-04
-6.387358880601823330e-04
-2.847885526716709137e-02
4.918182734400033951e-03
3.127578820567578077e-04
-1.756731979548931122e-02
1.888482272624969482e-02
1.850603439379483461e-04
-5.899862200021743774e-02
1.243863080162554979e-04
4.754134570248425007e-04
1.353150437353178859e-04
5.961761251091957092e-02
4.649816837627440691e-04
-8.426465210504829884e-04
-2.650001842994242907e-04
1.424345828127115965e-04
-7.104329997673630714e-04
-2.565550385043025017e-03
-8.431418973486870527e-05
8.101362735033035278e-03
-2.404686529189348221e-05
-2.317740814760327339e-03
1.100115198642015457e-02
-1.089549841708503664e-04
-3.729164600372314453e-02
4.279837230569683015e-05
1.882983557879924774e-02
3.194703895132988691e-04
-9.609475091565400362e-05
-2.927992027252912521e-04
-1.426981471013277769e-04
-7.218374521471560001e-04
2.745387319009751081e-04
-1.053649612003937364e-04
-1.918550988193601370e-04
-3.384277442819438875e-05
-1.456112222513183951e-04
1.424320216756314039e-04
-4.221012350171804428e-03
2.182379394071176648e-04
3.376028034836053848e-04
1.529274450149387121e-04
-1.160968313342891634e-04
3.994056896772235632e-04
-2.990723587572574615e-02
-5.109956837259232998e-04
-1.318570133298635483e-02
-1.143078916356898844e-04
3.198164049535989761e-04
1.752087264321744442e-04
4.588566371239721775e-04
4.411184636410325766e-04
3.121858462691307068e-04
1.108893557102419436e-04
-3.385281524970196187e-05
4.961901577189564705e-04
1.005394151434302330e-03
8.262790652224794030e-05
-4.639431834220886230e-02
4.754057736136019230e-04
-5.351519794203341007e-04
8.907234296202659607e-03
8.309349417686462402e-03
3.343619173392653465e-04
1.215840165968984365e-04
2.403384074568748474e-03
-3.579220920801162720e-02
4.650711489375680685e-04
-9.664736717240884900e-05
3.306138678453862667e-04
-2.890061587095260620e-04
-6.849128007888793945e-02
-1.077927736332640052e-04
3.234536270610988140e-04
2.555078244768083096e-04
2.916064695455133915e-04
-1.431343238800764084e-02
-4.689894267357885838e-04
-1.088525314116850495e-04
-3.184596425853669643e-04
-1.096137057174928486e-04
3.587607294321060181e-02
2.035304158926010132e-02
7.483009248971939087e-04
5.044764257036149502e-04
3.662442904897034168e-04
1.096116658300161362e-02
-2.154811663785949349e-04
-3.835560753941535950e-02
1.495043933391571045e-02
4.016081243753433228e-02
-1.406792551279067993e-02
-7.145088165998458862e-04
-1.784399384632706642e-03
-2.651075774338096380e-04
2.014011889696121216e-02
-3.745915018953382969e-04
-2.615700650494545698e-04
-1.087080163415521383e-04
2.110439090756699443e-04
-1.335560227744281292e-04
-9.331417386420071125e-04
-4.534576146397739649e-04
3.121904155705124140e-04
1.335794950136914849e-04
-6.714982446283102036e-04
1.461631909478455782e-04
-2.914687152951955795e-03
-7.853917777538299561e-03
6.758898962289094925e-04
-4.330927133560180664e-02
2.737191505730152130e-02
-3.037402057088911533e-04
-2.375743933953344822e-04
-2.825078554451465607e-04
-3.388785524293780327e-03
1.457185670733451843e-02
1.791580463759601116e-03
1.353327243123203516e-04
-2.579402551054954529e-02
-3.064027614891529083e-02
1.729490421712398529e-02
6.604227703064680099e-03
1.349394442513585091e-04
-4.021937027573585510e-03
1.329850238107610494e-05
-8.224454359151422977e-04
-3.284788690507411957e-03
9.064743667840957642e-02
1.183898057206533849e-04
4.330820590257644653e-02
4.682909324765205383e-02
1.149003580212593079e-02
-4.748764913529157639e-03
3.145424416288733482e-04
-2.484731376171112061e-02
9.081339463591575623e-03
-5.092586204409599304e-02
2.971330832224339247e-04
-5.528806243091821671e-03
-9.558389894664287567e-03
-8.332015015184879303e-03
8.315103128552436829e-03
1.927395060192793608e-04
-1.066932976245880127e-01
-1.078143343329429626e-02
-4.275760427117347717e-02
6.415822281269356608e-05
-4.423158534336835146e-04
3.285319835413247347e-04
-1.209674428537255153e-05
1.087984722107648849e-02
7.058213232085108757e-04
4.967102431692183018e-04
-4.593578050844371319e-04
-3.909335282514803112e-05
-3.648497909307479858e-02
-2.067604102194309235e-02
4.010661796201020479e-04
-4.883213434368371964e-03
-4.800954833626747131e-02
2.976070716977119446e-02
2.141810022294521332e-02
-2.482216805219650269e-04
4.018670879304409027e-04
-5.647703260183334351e-02
2.189550735056400299e-02
-3.866185620427131653e-02
3.558802604675292969e-02
-3.879321739077568054e-04
-1.680340804159641266e-02
-2.095503150485455990e-04
3.472838923335075378e-02
-5.248265806585550308e-03
-3.366693272255361080e-05
-9.083667770028114319e-03
9.599111042916774750e-03
-6.429500132799148560e-02
4.497412301134318113e-04
-1.161320041865110397e-02
-4.384242638479918242e-04
-6.351239979267120361e-03
4.173602536320686340e-02
1.070054480805993080e-03
-1.558712311089038849e-02
-4.216040542814880610e-04
3.571635810658335686e-03
7.389262318611145020e-03
1.013251468539237976e-01
7.965743541717529297e-03
1.172017771750688553e-02
1.160788312554359436e-01
4.343140125274658203e-02
1.344782416708767414e-03
3.376083332113921642e-04
-1.859410293400287628e-02
-1.247117324965074658e-04
-1.999255828559398651e-02
1.069973572157323360e-03
-3.274355456233024597e-02
-6.024888157844543457e-02
-3.759808093309402466e-02
-1.927141100168228149e-02
-1.278866402572020888e-04
-3.136700764298439026e-02
-1.179323717951774597e-01
-1.541360747069120407e-02
-8.490834385156631470e-03
-1.017667725682258606e-02
-1.420826930552721024e-02
7.617818773724138737e-04
6.074112653732299805e-02
-1.755982171744108200e-03
-2.491684444248676300e-02
1.107846983359195292e-04
-1.304658944718539715e-03
-1.415296923369169235e-03
-4.449986666440963745e-02
-4.593602498061954975e-04
1.102371793240308762e-02
-2.499342663213610649e-04
1.717147231101989746e-02
-2.709903492359444499e-05
-1.149793897639028728e-04
-4.957395419478416443e-02
3.285707533359527588e-02
-1.587669976288452744e-04
-7.976917549967765808e-05
7.582587003707885742e-02
5.875627510249614716e-03
3.570982068777084351e-02
6.467444449663162231e-02
4.249685630202293396e-02
-5.381469801068305969e-02
-2.692836860660463572e-04
-7.977683708304539323e-05
1.437592145521193743e-04
-3.802157193422317505e-02
-2.970680361613631248e-04
2.888559177517890930e-02
-1.143047306686639786e-02
-8.319461345672607422e-02
-5.088734254240989685e-02
-1.499253266956657171e-04
-1.700532622635364532e-02
-4.987755045294761658e-02
-1.243903301656246185e-02
2.156822942197322845e-02
-4.634143412113189697e-02
2.454779751133173704e-04
-1.662276685237884521e-02
-5.981786549091339111e-02
-2.934379153884947300e-05
-4.576093633659183979e-04
1.406944356858730316e-04
-7.029895641608163714e-05
-3.003752976655960083e-02
-2.644743211567401886e-02
3.977002110332250595e-03
-2.047519956249743700e-06
4.753864556550979614e-02
2.863780222833156586e-02
-1.718764938414096832e-02
2.807959099300205708e-04
2.602400199975818396e-04
3.542657196521759033e-02
2.459069900214672089e-02
-3.597686067223548889e-02
-1.414072321495041251e-04
-1.238355878740549088e-02
-2.359400875866413116e-02
2.342836000025272369e-02
8.378352969884872437e-03
-1.928864233195781708e-02
4.587918228935450315e-04
8.855032734572887421e-03
7.871699053794145584e-04
-1.202434208244085312e-02
1.526265405118465424e-04
3.547289222478866577e-02
-1.084784697741270065e-02
7.347001694142818451e-03
-1.591550745069980621e-02
-4.650168865919113159e-02
-3.711781231686472893e-03
1.189375616377219558e-04
1.999936252832412720e-02
1.086774500436149538e-04
-4.916687612421810627e-05
3.806754539255052805e-04
-2.264055219711735845e-04
7.324661055463366210e-07
-4.593289049807935953e-04
-5.577857373282313347e-04
-1.479616330470889807e-04
1.792544644558802247e-04
-6.467640399932861328e-03
-1.738388277590274811e-02
2.928316406905651093e-02
-4.167418181896209717e-02
-2.828755532391369343e-04
3.669017553329467773e-02
2.151290391338989139e-05
-1.664726645685732365e-03
-4.329374805092811584e-02
-4.726825654506683350e-02
-5.257431883364915848e-03
3.632936568465083838e-04
3.464007051661610603e-03
1.624724129214882851e-03
-1.077602792065590620e-04
9.006055770441889763e-04
-1.159778985311277211e-04
-2.506966702640056610e-04
7.479977793991565704e-04
-2.213863917859271169e-04
1.691855140961706638e-04
1.868370454758405685e-04
-2.769011072814464569e-02
-3.007718548178672791e-02
1.227971515618264675e-04
8.315267041325569153e-05
-1.718330569565296173e-02
-1.957104355096817017e-02
-2.983442391268908978e-05
1.216541323810815811e-02
-7.315082941204309464e-03
2.910713665187358856e-04
5.430309829534962773e-05
-4.325851332396268845e-04
1.278275594813749194e-04
-5.474122008308768272e-04
1.349399099126458168e-04
-8.410977170569822192e-05
-1.144795896834693849e-04
-9.121692855842411518e-04
-3.586571438063401729e-06
4.243038420099765062e-04
1.729628820612560958e-05
-2.870931348297744989e-04
4.540251393336802721e-04
2.223905466962605715e-04
1.238804776221513748e-03
3.193675074726343155e-04
1.635921944398432970e-04
-1.980628148885443807e-04
9.916886483551934361e-06
9.410129277966916561e-04
1.274008827749639750e-04
-8.239010639954358339e-05
2.799183712340891361e-04
-7.218148093670606613e-04
-4.406829830259084702e-04
1.525725238025188446e-04
3.597902541514486074e-04
-4.325365298427641392e-04
-2.017632941715419292e-04
-1.328417420154437423e-04
4.491797881200909615e-04
-8.419739606324583292e-05
-3.021809097845107317e-04
2.107667678501456976e-04
-1.385835785185918212e-04
3.144023939967155457e-04
-6.738033844158053398e-04
3.122866910416632891e-04
-1.917300251079723239e-04
-1.845451333792880177e-04
4.588824813254177570e-04
-4.698715347331017256e-04
3.028899955097585917e-04
-7.217947277240455151e-04
-4.483580414671450853e-04
1.273888483410701156e-04
-3.112508566118776798e-04
-1.053617597790434957e-04
-2.212861581938341260e-04
4.962161183357238770e-04
1.341156894341111183e-04
-1.169163224403746426e-04
2.558892883826047182e-04
1.591892214491963387e-04
-8.226116915466263890e-05
2.956208481919020414e-04
1.981135137612000108e-04
-1.918247144203633070e-04
-4.323321045376360416e-04
-6.739000091329216957e-04
-2.909480535890907049e-04
5.989900091663002968e-05
3.304877318441867828e-04
1.771668030414730310e-04
2.469666651450097561e-04
-1.508072600699961185e-04
-2.534781233407557011e-04
1.070063328370451927e-03
2.286707051098346710e-03
-9.646913531469181180e-05
-4.234782245475798845e-04
-3.051083476748317480e-04
1.350670790998265147e-04
9.791553951799869537e-03
1.743189786793664098e-04
-9.616345778340473771e-05
1.087404161808080971e-04
1.407758536515757442e-04
2.319648920092731714e-04
2.088850596919655800e-04
2.473268541507422924e-04
-1.074103929568082094e-04
-7.207245798781514168e-04
-1.916672481456771493e-04
-4.698178090620785952e-04
2.182883035857230425e-04
2.745760721154510975e-04
-4.698200500570237637e-04
-3.423868838581256568e-05
4.034022858832031488e-04
-2.927726309280842543e-04
-1.016844436526298523e-02
-3.080013848375529051e-04
-2.463130513206124306e-04
2.930465561803430319e-04
2.281216002302244306e-04
3.988510742783546448e-02
2.969488850794732571e-04
-2.419038675725460052e-02
-8.413718751398846507e-05
1.817858574213460088e-04
-7.222652784548699856e-04
1.266072795260697603e-04
-1.087090131477452815e-04
1.819177414290606976e-04
-1.053654850693419576e-04
2.854890190064907074e-04
2.767680562101304531e-04
-2.634414122439920902e-04
4.245644435286521912e-03
-1.488495036028325558e-04
-7.446473464369773865e-03
-4.431636189110577106e-04
2.020687097683548927e-03
1.626466028392314911e-02
-2.105439853039570153e-05
-2.193933614762499928e-04
5.207569483900442719e-05
2.188820362789556384e-04
3.364661824889481068e-04
4.674178198911249638e-04
1.422615168849006295e-04
-1.087102791643701494e-04
-8.930578769650310278e-05
-1.499341888120397925e-04
-2.530299825593829155e-04
1.408736861776560545e-04
-1.450091076549142599e-04
1.867710234364494681e-04
-1.742177119012922049e-04
7.485573878511786461e-04
1.980402041226625443e-03
1.986999450309667736e-05
-7.077404763549566269e-03
3.836027754005044699e-04
9.382071439176797867e-04
-7.073061424307525158e-04
5.996882100589573383e-05
1.139100454747676849e-02
-9.265624918043613434e-03
8.107538451440632343e-04
-7.079454953782260418e-04
2.832866157405078411e-04
-7.280686986632645130e-05
2.125205355696380138e-04
-3.568463434930890799e-04
-9.609097469365224242e-05
-2.131293993443250656e-03
3.186104295309633017e-04
-7.039105053991079330e-03
3.343571443110704422e-04
1.923067029565572739e-04
1.861876994371414185e-02
3.699996159411966801e-04
-2.733629662543535233e-03
-1.328590791672468185e-03
1.545391278341412544e-04
-4.196817753836512566e-04
3.084366768598556519e-02
1.349950762232765555e-04
2.556145955168176442e-05
8.851638063788414001e-03
-2.204140089452266693e-02
2.251323685050010681e-02
4.231935832649469376e-03
-3.846948035061359406e-03
7.019934710115194321e-04
-9.495543199591338634e-04
2.045464469119906425e-03
3.242278471589088440e-04
-1.145005589933134615e-04
-2.768236154224723577e-04
-3.584503137972205877e-04
-8.176532573997974396e-04
-2.004576235776767135e-04
1.353156112600117922e-04
-1.713491044938564301e-03
1.948934420943260193e-02
-1.347801880910992622e-03
-1.087102791643701494e-04
-3.744981368072330952e-04
-8.435050403932109475e-05
1.714712707325816154e-04
1.526129344711080194e-04
-2.537582186050713062e-04
-2.688032982405275106e-04
-3.355188528075814247e-05
-4.229188489262014627e-04
6.955881835892796516e-04
-2.449312247335910797e-03
7.008724496699869633e-04
-4.956843913532793522e-04
3.746554022654891014e-03
2.089473855448886752e-04
5.707678428734652698e-05
3.285225539002567530e-04
6.060022860765457153e-05
3.089508099947124720e-04
1.549856388010084629e-03
3.879436058923602104e-03
1.197696779854595661e-03
1.525291736470535398e-04
1.306746504269540310e-03
1.866903621703386307e-03
2.175307017751038074e-04
-9.461317677050828934e-04
1.424283400410786271e-04
2.102655162161681801e-05
1.832419820129871368e-02
1.433809520676732063e-03
3.191500145476311445e-04
-1.208734931424260139e-03
-1.625378616154193878e-02
-2.765469439327716827e-02
-9.629691950976848602e-03
-5.006318097002804279e-04
-6.882806192152202129e-04
1.100606564432382584e-02
1.519132498651742935e-02
-1.223071292042732239e-02
2.359497360885143280e-02
1.328798662871122360e-02
7.325978577136993408e-02
-3.193944320082664490e-02
-4.543986171483993530e-02
-3.923943440895527601e-04
4.747342027258127928e-04
1.045463327318429947e-02
1.872160210041329265e-04
-1.318229915341362357e-04
1.230889174621552229e-04
2.301071363035589457e-04
6.853757076896727085e-04
-7.615951355546712875e-03
-2.386670676060020924e-04
-2.208166552009060979e-04
-2.021218184381723404e-03
1.647783792577683926e-03
9.209139534505084157e-05
-2.954704104922711849e-04
-7.582610851386561990e-05
-2.319577615708112717e-04
1.886285754153504968e-04
1.147125381976366043e-02
-2.136092225555330515e-04
-3.198806080035865307e-04
-2.290495758643373847e-04
2.428694715490564704e-04
-6.092929397709667683e-04
-8.855908177793025970e-03
1.424508664058521390e-04
2.434637644910253584e-05
-1.750123873353004456e-02
-3.386380150914192200e-02
-2.241477556526660919e-02
1.105795454350300133e-04
-5.703791510313749313e-03
5.177424475550651550e-02
7.079391181468963623e-02
2.909619652200490236e-04
1.353156985715031624e-04
-1.822837657527998090e-04
-4.698360280599445105e-04
3.375919477548450232e-04
6.009949356666766107e-05
-3.756707010325044394e-04
-1.085822368622757494e-04
3.145265509374439716e-04
1.282707042992115021e-02
-1.673720835242420435e-04
2.356071025133132935e-02
1.618710532784461975e-02
3.191994503140449524e-03
-5.674686655402183533e-02
-3.440663591027259827e-02
-7.965507684275507927e-04
-2.064398489892482758e-02
4.218915477395057678e-02
6.743397680111229420e-04
1.354886480839923024e-04
-9.773139754543080926e-05
1.333469845121726394e-04
-1.153751873061992228e-04
-3.282900154590606689e-02
2.059132419526576996e-02
4.648689646273851395e-04
3.126320370938628912e-04
-7.572061382234096527e-03
-4.259871639078482985e-05
2.020007668761536479e-04
3.121398622170090675e-04
4.733088717330247164e-04
1.985972560942173004e-02
1.004091172944754362e-04
-1.239643461303785443e-04
-1.916485925903543830e-04
-6.804785807617008686e-04
1.099358545616269112e-03
2.064599189907312393e-03
-1.928306929767131805e-02
5.216907709836959839e-03
-2.163711562752723694e-02
1.325004082173109055e-02
2.520411217119544744e-04
1.934975199401378632e-02
-8.399160578846931458e-03
-4.972970782546326518e-05
2.638773003127425909e-04
-4.712987574748694897e-04
2.022583648795261979e-04
3.984693612437695265e-04
7.478063344024121761e-04
4.190423060208559036e-03
3.154774894937872887e-04
-9.160201298072934151e-04
-4.275668470654636621e-04
-2.901525003835558891e-04
-3.282343386672437191e-04
-1.650683116167783737e-04
2.912497147917747498e-04
2.951819624286144972e-04
-1.089584184228442609e-04
3.376080712769180536e-04
-9.002716979011893272e-05
6.013428355799987912e-05
1.408684620400890708e-04
-1.453533623134717345e-04
2.934179210569709539e-04
-9.964194614440202713e-04
3.916013811249285936e-04
-3.553886926965788007e-07
1.640998199582099915e-02
3.579405136406421661e-03
-1.075870636850595474e-02
-1.584954187273979187e-02
-1.053606392815709114e-04
-3.570348198991268873e-04
1.302691735327243805e-02
-4.128501459490507841e-04
